tree
version=v3
num_class=1
num_tree_per_iteration=1
label_index=0
max_feature_idx=31
objective=binary sigmoid:1
feature_names=Column_0 Column_1 Column_2 Column_3 Column_4 Column_5 Column_6 Column_7 Column_8 Column_9 Column_10 Column_11 Column_12 Column_13 Column_14 Column_15 Column_16 Column_17 Column_18 Column_19 Column_20 Column_21 Column_22 Column_23 Column_24 Column_25 Column_26 Column_27 Column_28 Column_29 Column_30 Column_31
feature_infos=[-187.50331:180] [-78.66404:89.786500000000004] [-8986:-16] [-8997:450] [0:26.1875] [-0.023647605315999999:1.0486158618600001] [-0.0028925473129699998:1.0030741519799999] [-0.00032999739049699998:1.0027195978500001] [-10.8488320482:270.34898593600002] [-308.92065756699998:324.46678242600001] [-766.34525828100004:15688.3329767] [-11.788236943099999:17944.426912700001] [0.45375562150799997:178.47551206599999] [0.00051797447950400002:0.97769917560599995] [-12082.473230600001:243672.05265100001] [-59477.661194599998:5298349.0018999996] [-256482.12969900001:5808890.1101900004] [-235477.56525700001:11883074.5945] [-51.0187087451:872.25281122700005] [-44.852349783500003:1144.49296652] [-57.178320398700002:1351.8416600200001] [-66.758063222999994:2141.5844179699998] [-6899.7299999999996:4522.1099999999997] [-6777.8999999999996:4521.96] [-6717.3999999999996:4548.25] [-6743.8100000000004:4400.1700000000001] [-35282.099999999999:77486.800000000003] [-2691.8000000000002:2822.9699999999998] [-2440.8600000000001:5299.4799999999996] [-3611.3200000000002:2609.27] [1984:2010] [1:1]
tree_sizes=3703 3787 3790 3784 3796 3788 3805 3792 3796 3796 3798 3787 3808 3785 3809 3781 3804 3799 3794 3800 3812 3797 3796 3813 3791 3820 3797 3827 3814 3793 3832 3818 3798 3809 3817 3786 3811 3832 3816 3813 3824 3812 3826 3832 3827 3823 3825 3800 3794 3810 3823 3820 3817 3838 3812 3834 3811 3823 3824 3821 3824 3836 3834 3843 3817 3822 3825 3826 3832 3810 3823 3824 3833 3815 3817 3812 3821 3828 3821 3839 3829 3822 3826 3825 3839 3824 3825 3823 3828 3822 3836 3827 3832 3836 3834 3838 3844 3820 3833 3828 3830 3833 3846 3835 3831 3836 3828 3834 3847 3830 3836 3821 3841 3829 3830 3833 3829 3823 3832 3825 3837 3822 3823 3850 3848 3851 3847 3837 3830 3838 3837 3830 3834 3842 3830 3836 3831 3827 3829 3859 3839 3850 3835 3851 3838 3832 3823 3845 3838 3827 3852 3825 3850 3832 3851 3835 3859 3838 3854 3859 3828 3860 3851 3842 3851 3840 3863 3846 3851 3854 3837 3856 3850 3856 3849 3857 3835 3854 3854 3859 3856 3849 3848 3865 3863 3848 3851 3867 3869 3847 3868 3849 3853 3856 3867 3871 3842 3872 3854 3862 3871 3873 3841 3859 3865 3872 3877 3862 3842 3869 3868 3873 3848 3874 3862 3873 3865 3877 3862 3845 3863 3886 3860 3861 3877 3881 3859 3894 3873 3859 3880 3883 3869 3866 3866 3876 3879 3876 3870 3885 3896 3867 3846 3861 3851 3840 3849 3863 3877 3877 3850 3851 3868 3866 3891 3877 3870 3870 3856 3889 3890 3860 3882 3882 3870 3871 3878 3873 3865 3870 3869 3896 3881 3857 3885 3867 3885 3879 3881 3882 3875 3880 3873 3877 3895 3875 3860 3883 3890 3879 3871 3872 3887 3857 3872 3885 3867 3893 3889 3897 3877 3881 3858 3877 3865 3871 3865 3901 3858 3888 3894 3888 3880 3861 3905 3879 3882 3863 3896 3898 3868 3892 3872 3904 3907 3878 3881 3902 3905 3884 3890 3885 3897 3890 3874 3872 3880 3889 3898 3878 3889 3887 3878 3901 3896 3887 3900 3900 3891 3903 3899 3906 3892 3886 3903 3906 3887 3891 3884 3896 3913 3903 3884 3893 3879 3893 3885 3892 3898 3888 3906 3898 3906 3887 3888 3894 3906 3896 3897 3892 3902 3897 3892 3902 3908 3909 3897 3906 3907 3912 3905 3908 3902 3885 3908 3897 3913 3900 3894 3887 3900 3905 3898 3909 3904 3893 3914 3898 3911 3897 3906 3895 3919 3898 3910 3907 3896 3907 3909 3908 3906 3909 3907 3898 3904 3908 3912 3899 3905 3915 3897 3910 3920 3907 3915 3906 3914 3929 3905 3913 3921 3912 3904 3910 3911 3906 3892 3916 3921 3904 3911 3890 3899 3905 3902 3922 3902 3907 3907 3904 3913 3897 3892 3907 3908 3928 3911 3902 3924 3906 3912 3919 3915 3919 3914 3910 3914 3906 3903 3912 3916 3911 3919 3908 3913 3907 3910 3908 3916 3927 3905 3911 3919 3911 3915 3917 3911 3918 3909 3900 3914 3916 3917 3894 3922 3912 3915 3931 3903 3926 3913 3914 3918 3902 3912 3913 3925 3913 3915 3924 3908 3913 3902 3900 3914 3913 3906 3906 3907 3901 3912 3914 3919 3911 3890 3914 3904 3919 3916 3914 3900 3907 3909 3911 3930 3912 3915 3918 3921 3914 3914 3903 3911 3916 3911 3910 3913 3897 3910 3902 3910 3911 3910 3909 3925 3912 3918 3897 3917 3912 3917 3909 3910 3914 3927 3918 3907 3917 3911 3926 3903 3905 3901 3910 3918 3910 3901 3917 3921 3927 3923 3904 3904 3912 3930 3916 3914 3924 3909 3917 3926 3916 3917 3922 3919 3923 3922 3909 3920 3903 3906 3905 3912 3922 3915 3908 3924 3919 3922 3926 3908 3924 3907 3914 3912 3896 3917 3796 3910 3907 3938 3907 3914 3914 3663 3912 3910 3916 3799 3904 3895 3805 3911 3912 3923 3910 3669 3927 3795 3785 3928 3908 3799 3549 3894 3664 3915 3911 3548 3918 3662 3671 3793 3918 3905 3671 3667 3685 3902 3667 3425 3781 3552 3545 3666 3662 3529 3806 3549 3774 3666 3919 3534 3891 3792 3679 3540 3791 3675 3676 3915 3793 3787 3554 3652 3557 3669 3779 3920 3301 3668 3796 3561 3417 3666 3918 3560 3793 3425 3521 3809 3423 3794 3688 3665 3800 3683 3793 3802 3428 3682 3297 3535 3434 3552 3671 3434 3543 3430 3552 3777 3686 3428 3309 3665 3557 3303 3189 3436 3551 3673 3557 3554 3663 3429 3417 3670 3668 3436 3426 3543 3549 3665 3312 3428 3543 3672 3542 3661 3167 3551 3314 3279 3787 3169 3560 3532 3308 3551 3679 3653 3412 3312 3284 3321 3425 3528 3308 3660 3421 3417 3551 3549 3303 3317 3423 3418 3528 3416 3292 3431 3436 3423 3300 3293 3311 3310 3538 3412 3680 3312 3440 3436 3434 3420 3171 3309 3668 3412 3673 3312 3439 3314 3187 2942 3188 3183 3672 3186 3296 3196 3059 3308 3169 3168 3296 3310 3304 3303 3195 3170 3542 3182 3435 2935 3181 2941 3192 3425 3311 3196 3297 3425 3187 3174 3304 3043 3430 3321 3672 3305 3174 3292 3058 3300 3189 3052 3294 3180 3182 3186 3536 3058 3186 3190 3539 3310 3062 3419 3183 3061 3306 3064 3176 3178 3424 3187 3189 3070 3426 3186 3166 3419 3191 3065 3192 3415 3188 3068 3188 3176 3302 3176 3188 3187 3053 3294 3181 3183 3300 3070 3300 3068 2932 3295 3425 3183 3292 3188 3057 3197 3294 3193 3061 3298 3312 3189 3179 3174 3192 3166 3068 3064 3294 3060 3179 3187 3193 2931 3175 3186 2937 2928 3180 2927 3049 2933 3175 3067 3049 3184 2938 3069 3305 3186 3291 2804 3070 3053 3178 3060 3086 3184 3169 3185 3316 2923 2943 3174 3169 2934 3319 2810 2926 2940 3048 3066 3050 2929 2936 3172 3182 3190 3045 3061 3188 2945 3061 3174 3046 3059 2937 3058 3184 3058 3068 2937 2821 3193 3053 2940 2813 2936 3063 2825 3050 2930 3195 2942 3057

Tree=0
num_leaves=31
num_cat=0
split_feature=5 0 4 0 30 30 0 4 13 30 30 11 1 0 0 11 16 7 10 11 11 30 2 4 13 14 5 5 5 1
split_gain=1.41031 0.569741 0.335522 0.140416 0.129287 0.196296 0.133422 0.131557 0.0952403 0.078042 0.158478 0.143917 0.0601847 0.0561183 0.0458458 0.0376727 0.0341069 0.0327807 0.0221496 0.0373777 0.0189402 0.0188917 0.0161477 0.0147682 0.00669529 0.00648437 0.00422598 0.00410429 0.00303784 0.00114185
threshold=0.27232855920250004 -128.21883499999998 0.0029852750000000003 -3.1582749999999997 1998.5000000000002 1991.5000000000002 -109.10158499999999 0.040011100000000008 0.60148819460100011 1997.5000000000002 1996.5000000000002 37.233733116050004 -57.744819999999997 -48.784129999999998 -7.0031249999999998 191.46868968900003 12950.082629700002 0.41341908648800008 2215.7260030450002 442.58023832500004 415.66781588850006 2001.5000000000002 -2995.4999999999995 0.0097280250000000013 0.58388969402050017 144.49309526550005 0.59317796919950017 0.6994243875945001 0.18386178999950004 -42.412974999999996
decision_type=2 2 2 2 2 2 2 2 8 2 2 10 2 2 2 10 2 2 8 10 8 2 2 2 8 2 2 2 2 2
left_child=12 16 3 9 5 -4 17 8 -8 10 13 -11 -1 -3 15 22 23 -6 26 -20 27 28 -7 29 -5 -17 -13 -10 -14 -2
right_child=1 2 4 24 6 14 7 -9 20 11 -12 18 21 -15 -16 25 -18 -19 19 -21 -22 -23 -24 -25 -26 -27 -28 -29 -30 -31
leaf_value=2.772782731881497 2.8743800415617797 2.7846007215982249 2.8694606987755331 2.8558629221256639 2.7011518342628058 2.7803543256711079 2.7622548835904883 2.7109879978211553 2.8540635163994379 2.7403351075745763 2.7041043355667451 2.8553672110144728 2.689755634266064 2.8810168395578861 2.78386719927272 2.6966750010506675 2.8208928118270369 2.7747449790578953 2.8679184044030319 2.8016106525666791 2.826026139653532 2.7282038503953467 2.724140505332926 2.8444489706666567 2.8853801792581639 2.7234874665667657 2.8810151924515357 2.8786283104473944 2.7064821107177819 2.8856626605331037
leaf_weight=0.0011004759494941405 0.0010015962072329474 0.0013260681684135187 0.0010552019033338586 0.0010152648800951785 0.0015179633284845284 0.0010351046436252185 0.0014156116218047019 0.0010260898316161171 0.0010231410280097109 0.0014556891100641067 0.0017683123540712664 0.0010052992669120639 0.010561070317069545 0.0011081500288707693 0.0011471196722943047 0.0043186451038754736 0.0010500881866071241 0.0010066430766237922 0.0016488278529285241 0.0017549934986489379 0.0014051493799978054 0.0015895451884528908 0.0010092443241986879 0.0010193145992254413 0.0031610398371255681 0.0011400881486134384 0.0017797410270354863 0.0020289824795876044 0.001210243196412498 0.0085886032905857501
leaf_count=357372 670812 483848 689087 616127 123717 362757 409102 117901 614655 312331 161850 608387 452048 767150 415697 286325 512562 333608 1068112 741723 710366 275570 161041 579077 2235161 179391 1232069 1388167 120543 6081212
internal_value=0 -6.18127 -8.19048 -4.81487 -11.0181 -13.5798 -8.37971 -6.10351 -4.27823 -6.57248 -10.0341 -4.66948 -17.4795 -4.80015 -15.1505 -16.0507 -0.123741 -14.5999 -2.56517 -4.27641 -2.00877 -18.065 -12.3892 0.414336 0.170997 -17.422 -0.473734 -0.61009 -18.5019 0.798978
internal_weight=0 0.046812 0.0351524 0.0160234 0.019129 0.0097054 0.00942358 0.00689897 0.00587288 0.0118471 0.00420253 0.00764455 0.0144613 0.00243422 0.0086502 0.00750308 0.0116596 0.00252461 0.00618886 0.00340382 0.00445727 0.0133609 0.00204435 0.0106095 0.0041763 0.00545873 0.00278504 0.00305212 0.0117713 0.0095902
internal_count=23067768 21862235 14018572 8226758 5791814 2094298 3697516 3240191 3122290 5375470 1412848 3962622 1205533 1250998 1405211 989514 7843663 457325 3650291 1809835 2713188 848161 523798 7331101 2851288 465716 1840456 2002822 572591 6752024
shrinkage=1


Tree=1
num_leaves=31
num_cat=0
split_feature=5 0 0 4 4 30 30 1 10 10 30 30 26 11 1 13 16 11 10 0 11 5 5 4 30 21 30 5 0 8
split_gain=1.02804 0.482229 0.264011 0.185057 0.165658 0.10622 0.115316 0.105948 0.0759165 0.0518001 0.0597588 0.0951316 0.0456661 0.0452331 0.0446531 0.0375524 0.0319537 0.0256294 0.0245903 0.0212054 0.0194033 0.0223706 0.0137725 0.0126576 0.00940862 0.00696287 0.00594843 0.00303649 0.00294491 0.00478888
threshold=0.28281285888000007 -128.21883499999998 -3.1582749999999997 0.035288900000000005 0.0023908450000000004 1991.5000000000002 1997.5000000000002 -15.017779999999998 3696.8569790150004 7186.8154255550007 1997.5000000000002 1996.5000000000002 -1.610965 139.68283815200002 -57.744819999999997 0.45549668179600006 11409.652507500001 49.343717336750011 2215.7260030450002 -62.15064499999999 452.48173775450005 0.76212633300700017 0.18386178999950004 0.0097280250000000013 1998.5000000000002 145.60570614050002 1996.5000000000002 0.61558354409950011 -114.28722499999999 1.0197465682650002
decision_type=2 2 2 2 2 2 2 2 10 8 2 2 10 10 2 8 2 8 10 2 10 2 2 2 2 2 2 2 2 2
left_child=14 16 4 15 9 -6 13 8 -8 10 11 25 -9 -7 -1 -4 23 -11 27 -20 21 -14 -16 -2 -24 -3 -15 -12 -10 -30
right_child=1 2 3 -5 5 6 7 12 28 17 18 -13 20 26 22 -17 -18 -19 19 -21 -22 -23 24 -25 -26 -27 -28 -29 29 -31
leaf_value=-0.090183891009645176 0.0080822254376439889 -0.054482661208480838 -0.060710736454531462 -0.14977748023717355 -0.0065857589333257792 -0.083501979283725061 -0.054519462928461541 -0.11928714582424269 -0.15953342855126715 -0.13743736711863588 -0.016962942279488805 -0.14473210099639891 -0.066212920566391248 -0.1358150262149804 -0.15592256608512911 0.0055771793690673685 -0.049517130217223038 -0.070620415775943704 -0.022379213470531609 -0.078618410294653218 -0.073169894552019388 -0.0069050957126797772 -0.14859185421824078 -0.029079192688603719 -0.11081371400377062 -0.017168337809335032 -0.15657304109313994 0.0052852867113345973 -0.15503852782020824 -0.12486156345740022
leaf_weight=0.0012708405755934562 0.0093998160666639557 0.0010001408505940796 0.0010031464318462904 0.0010030082205276791 0.0010073609284910736 0.001181215679624481 0.0011641569555694833 0.0010046542283294038 0.0013375004714346606 0.0010068216538190449 0.0010042643212017088 0.0013389664091760789 0.0010003618239146101 0.001938997014974797 0.013302016473270006 0.0057717019317948814 0.0012258821277340024 0.0013356072628047944 0.0015705912411771994 0.0011698282018608452 0.0015061374771944136 0.0017461109881031778 0.0014118404845185886 0.0010155994270305566 0.0012367078804929044 0.0010001673482535889 0.0047926123298460688 0.0015763827040725651 0.0010961405301557203 0.0010108181400882987
leaf_count=392948 6669092 462619 438025 96409 653187 377486 521567 214982 48998 131625 608907 112897 407065 230332 531830 3964043 585547 512769 893474 438088 566525 1101666 105959 566740 266593 595300 209336 1098777 78411 186571
internal_value=0 -5.74607 -7.48871 -2.30063 -8.84331 -10.648 -11.2141 -8.93323 -12.4333 -5.76192 -4.63348 -7.94942 -5.86503 -14.0578 -14.7231 -0.423802 -0.122525 -9.93396 -2.55254 -4.63866 -4.43252 -2.85071 -15.1776 0.445864 -13.0952 -3.58253 -15.0594 -0.337266 -14.7928 -14.0561
internal_weight=0 0.049208 0.0375667 0.00777786 0.0297888 0.0187861 0.0177787 0.00986588 0.00460862 0.0110028 0.00866034 0.00333927 0.00525726 0.00791283 0.0172214 0.00677485 0.0116413 0.00234243 0.00532107 0.00274042 0.00425261 0.00274647 0.0159506 0.0104154 0.00264855 0.00200031 0.00673161 0.00258065 0.00344446 0.00210696
internal_count=23067768 21770438 13949059 4498477 9450582 4596126 3942939 3125785 835547 4854456 4210062 1170816 2290238 817154 1297330 4402068 7821379 644394 3039246 1331562 2075256 1508731 904382 7235832 372552 1057919 439668 1707684 313980 264982
shrinkage=0.01


Tree=2
num_leaves=31
num_cat=0
split_feature=5 0 0 4 30 30 11 1 26 11 1 13 17 4 11 10 3 6 30 11 1 30 8 4 30 29 1 1 11 11
split_gain=0.783006 0.414231 0.218215 0.156725 0.132862 0.204775 0.203027 0.0861399 0.0844121 0.0475667 0.0353104 0.0332781 0.0303605 0.0277001 0.0316462 0.0564157 0.0321117 0.0265847 0.0198069 0.0331565 0.0122792 0.0112006 0.0111244 0.00836165 0.00678736 0.00675893 0.00309968 0.00239844 0.00210728 0.00205354
threshold=0.29216962867400004 -128.21883499999998 -3.1582749999999997 0.040011100000000008 1991.5000000000002 1997.5000000000002 37.233733116050004 -15.017779999999998 -2.2820149999999999 189.19404914550003 -57.744819999999997 0.44728878822900003 77046.253804900014 0.016075350000000002 452.48173775450005 2215.7260030450002 -4707.4999999999991 0.56566960784300002 1996.5000000000002 1836.3259641800003 -47.563159999999996 2001.5000000000002 38.892175872200006 0.009298070000000002 2004.5000000000002 -0.40867099999999995 7.2251450000000004 32.444600000000001 4217.091783625001 1157.1975213400003
decision_type=2 2 2 2 2 2 10 2 10 10 2 8 2 2 10 10 2 2 2 10 2 2 2 2 2 10 2 2 10 10
left_child=10 12 4 11 -3 9 7 24 -8 17 -1 -4 23 14 20 25 -17 -6 19 -11 -10 26 -23 -2 -7 -16 -12 -22 -21 -13
right_child=1 2 3 -5 5 6 8 -9 13 18 21 29 -14 -15 15 16 -18 -19 -20 28 27 22 -24 -25 -26 -27 -28 -29 -30 -31
leaf_value=-0.079902274306756907 0.0081614811098625045 0.0012817874836611311 -0.057089932869411587 -0.13353384450810862 -0.1092384823433202 -0.11263242008366749 -0.12245496818429136 -0.038048801286913327 -0.038485358414929935 -0.061672876443139631 -0.11761972374910812 0.0079349769999238536 -0.042566766054409885 -0.081482956493694192 -0.037923507678533711 -0.12488908050301356 -0.044879191327565002 -0.036386750032890339 -0.13541623262143224 -0.11931418932929354 0.0061191421748682676 -0.13041531164135661 -0.085958164410056895 -0.021987579207666662 -0.13858026804490237 -0.0062850664101226405 -0.13541241877990443 -0.011888757954265835 -0.13955288537096103 -0.007771783553977704
leaf_weight=0.0014387002806597318 0.009057813309035434 0.0018629741521331005 0.0010074161230569922 0.0010841954677722754 0.0010002461797024029 0.0014436950950089678 0.0011275918985520468 0.0012679985414564268 0.0010026052990127488 0.0011242108467778289 0.0010468508888123998 0.004769552180130642 0.0015404139706162176 0.0010049062852084407 0.0010035513759044656 0.0010019696218714902 0.0010045184980912447 0.0010033629201071648 0.0070301843240072603 0.0010534546793101729 0.0026165192454431527 0.0012612924740381662 0.0010164418657021557 0.0010238937253382882 0.0033410078084861183 0.0020638557280527881 0.015131738165272246 0.0010310567825998485 0.0010055281219253365 0.0010083833175087431
leaf_count=427252 6473707 1223943 416147 77246 189824 212737 158080 606038 509548 410411 106369 3334604 745209 310827 499792 160262 438312 440389 286055 133671 1745667 100037 244125 579880 149587 1265557 508654 619671 53956 640211
internal_value=0 -5.37494 -6.90666 -2.18921 -8.06718 -8.57397 -6.42065 -11.1331 -4.015 -11.7306 -12.7619 -0.405343 -0.121821 -3.14999 -2.63346 -4.36049 -8.48333 -7.2756 -12.6046 -10.535 -0.749062 -13.1338 -11.0576 0.509956 -13.0751 -1.66361 -13.4261 0.102887 -12.9198 0.519378
internal_weight=0 0.0514809 0.0398588 0.00786955 0.0319892 0.0301263 0.0179093 0.0060527 0.0118566 0.012217 0.019895 0.00678535 0.0116221 0.010729 0.00972408 0.0050739 0.00200649 0.00200361 0.0102134 0.00318319 0.00465018 0.0184563 0.00227773 0.0100817 0.0047847 0.00306741 0.0161786 0.00364758 0.00205898 0.00577794
internal_count=23067768 21681331 13882535 4468208 9414327 8190384 6676078 968362 5707716 1514306 1386437 4390962 7798796 5549636 5238809 2363923 598574 630213 884093 598038 2874886 959185 344162 7053587 362324 1765349 615023 2365338 187627 3974815
shrinkage=0.01


Tree=3
num_leaves=31
num_cat=0
split_feature=5 0 0 4 30 30 11 26 1 13 11 17 5 12 21 5 1 30 11 4 3 10 4 0 30 0 30 11 10 4
split_gain=0.61627 0.372287 0.184613 0.13422 0.114354 0.160752 0.16653 0.070349 0.0666702 0.0387637 0.0344847 0.0287518 0.0270184 0.0264087 0.022117 0.0198989 0.0208613 0.0142608 0.0311756 0.013417 0.0100301 0.0272093 0.00871511 0.00596285 0.00528762 0.00316628 0.00667999 0.00304642 0.00223043 0.0020388
threshold=0.27232855920250004 -128.21883499999998 -3.1582749999999997 0.040011100000000008 1991.5000000000002 1997.5000000000002 37.233733116050004 -2.1543199999999998 -15.017779999999998 0.40689364702050007 183.86840536150004 77046.253804900014 0.65093324788400009 45.728314341750007 40.683423604700003 0.16082108546450005 -38.341124999999998 1996.5000000000002 1597.6905765200001 0.011255800000000002 -4618.4999999999991 2383.8526137450003 0.0097280250000000013 -112.08681499999999 1998.5000000000002 -65.261559999999989 2002.5000000000002 1292.3468323550003 2930.4808773450004 0.24032450000000002
decision_type=2 2 2 2 2 2 10 10 2 8 10 2 2 10 2 2 2 2 10 2 2 10 2 2 2 2 2 10 10 2
left_child=15 11 4 9 -3 10 8 -8 23 -4 12 22 -6 14 -9 29 -17 18 -12 20 21 -16 -2 -7 -18 -22 -27 -11 -20 -1
right_child=1 2 3 -5 5 6 7 13 -10 27 17 -13 -14 -15 19 16 24 -19 28 -21 25 -23 -24 -25 -26 26 -28 -29 -30 -31
leaf_value=-0.11847489918169841 0.0081313410955166279 0.0012984893866497666 -0.062551632803679383 -0.11799071874087881 -0.10256306963392316 -0.12090056616809701 -0.10732121277142603 -0.067741112087033872 -0.036578050818338918 0.007849419159883889 -0.049971786707282279 -0.040574094640941263 -0.031537296770076183 -0.067104857135515006 -0.0034008664697613754 -0.057297547122014403 -0.11766157548306766 -0.11952399375924669 -0.10618892042204849 -0.052757101169178033 0.0044686991450144072 -0.065968126164793472 -0.022934181465882626 -0.094107217139663663 -0.092007240840164969 0.0018163745011686196 -0.031450200243987279 -0.011135329915327303 -0.12509663890860456 -0.13185664074495557
leaf_weight=0.015676992221432595 0.0091077535364276763 0.0018674455415251803 0.0010041107678681047 0.001239764321914083 0.0011152567835936995 0.0044255302656691642 0.0013384112310129675 0.001034020260713313 0.0013166157799396885 0.0049474545256903424 0.0010587418056829951 0.0015997456444120104 0.0010304362762216801 0.0016814765592879652 0.0017258727193686385 0.0010734044760004604 0.0021027220939144886 0.008001007986475182 0.0013994521451476949 0.0010188908719024337 0.002043984392253285 0.0011637311891171676 0.0010024538860198282 0.0010225305998423639 0.0013001916380825929 0.0014165201930769185 0.0010518228420022258 0.0010193989823772398 0.001125777563587449 0.0012277032409621072
leaf_count=542736 6549649 1227736 360611 78776 176548 201066 180051 349922 607458 3469572 397551 745393 449193 598540 1097359 326563 87654 289669 155575 393943 1299716 413904 548621 165858 212294 877431 550299 621523 56271 36286
internal_value=0 -5.11756 -6.47748 -2.21182 -7.48284 -7.91403 -6.04864 -3.88214 -10.0439 -0.506752 -10.5278 -0.118194 -6.8454 -3.05888 -2.40947 -11.4482 -9.57349 -11.2098 -9.5521 -1.87352 -1.4052 -2.85986 0.505111 -11.5872 -10.786 -0.473661 -1.23593 0.4606 -11.4618 -11.9447
internal_weight=0 0.0547582 0.0430483 0.00821073 0.0348375 0.0329701 0.0192394 0.0124747 0.00676468 0.00697096 0.0137307 0.01171 0.00214569 0.0111363 0.00945484 0.021381 0.00447632 0.011585 0.00358397 0.00842082 0.00740193 0.0028896 0.0101102 0.00544806 0.00340291 0.00451233 0.00246834 0.00596685 0.00252523 0.0169047
internal_count=23067768 21862235 14018572 4530482 9488090 8260354 6735547 5761165 974382 4451706 1524807 7843663 625741 5581114 4982574 1205533 626511 899066 609397 4632652 4238709 1511263 7098270 366924 299948 2727446 1427730 4091095 211846 579022
shrinkage=0.01


Tree=4
num_leaves=31
num_cat=0
split_feature=0 5 0 4 30 30 11 4 4 1 11 10 3 13 11 17 5 1 1 30 11 29 2 1 0 4 0 1 11 1
split_gain=0.526368 0.293885 0.156177 0.115671 0.0962883 0.126849 0.13605 0.0907799 0.0598958 0.0523203 0.0427038 0.0637238 0.0370175 0.0291506 0.0281799 0.0215165 0.0204636 0.0193731 0.0124329 0.0112161 0.0286256 0.00851896 0.00572866 0.00556623 0.00461338 0.00414182 0.00327296 0.00254475 0.00218562 0.00160411
threshold=-128.21883499999998 0.30046155528850005 -3.1582749999999997 0.040011100000000008 1991.5000000000002 1997.5000000000002 37.233733116050004 0.021476850000000002 0.035288900000000005 -15.017779999999998 452.48173775450005 2215.7260030450002 -4605.4999999999991 0.42789480859900003 183.86840536150004 116535.26246650002 0.65093324788400009 -57.744819999999997 -50.205069999999992 1996.5000000000002 1546.4182553750002 -0.54155999999999993 -1315.4999999999998 33.322115000000004 -112.08681499999999 0.0020410250000000006 -3.1582749999999997 40.845305000000003 1199.1872101800002 -45.866984999999993
decision_type=2 2 2 2 2 2 10 2 2 2 10 10 2 8 10 2 2 2 2 2 10 10 2 2 2 2 2 2 10 2
left_child=7 17 4 13 -3 14 9 15 10 24 18 21 -13 -4 16 29 -6 -2 -8 20 -16 -12 26 -20 -7 -23 -19 -22 -15 -1
right_child=1 2 3 -5 5 6 8 -9 -10 -11 11 12 -14 28 19 -17 -18 22 23 -21 27 25 -24 -25 -26 -27 -28 -29 -30 -31
leaf_value=-0.0042278465440690307 -0.063274995589032559 0.0012446833255862738 -0.052754054388949569 -0.10572262240544093 -0.091450290795287437 -0.10809364345470038 -0.038774269464042249 -0.095466759436613619 -0.10949214208828693 -0.03486942968737039 -0.043172256489850749 -0.1100135094312864 -0.036201536904835581 0.0079141403982026983 -0.041174482197887087 -0.039996402368428059 -0.03037820228614712 -0.10771289812585437 0.0057594358363931199 -0.10711425642567445 -0.095945193122878331 0.0019531800278149249 -0.082646633503142108 -0.021306723825615877 -0.085032891708328104 -0.024322906297638419 -0.091521262752168445 -0.11595046241428814 -0.0083092761030318339 0.0090246590925958849
leaf_weight=0.001011573288662638 0.0011344797510001159 0.0018553508833224479 0.0010272005387266248 0.0013285294508549317 0.0011385887425355854 0.0047825230721945111 0.0010912705882624154 0.0010104141215501192 0.0010313136634220186 0.0013515466513910326 0.0010048774816052708 0.0017949917577810837 0.0010932722797984962 0.0047483084982324897 0.0010186623250465496 0.0010384314213404142 0.001058908307186246 0.02032448352636906 0.0031250255785176826 0.0086816329674601622 0.0017400177780174664 0.0014826938531270484 0.0010359375405887264 0.0010039034001451119 0.001059730751212129 0.0010075246727649922 0.0013301175277401515 0.0010020171503272168 0.0010064122469141124 0.0094062980266022
leaf_count=628934 312753 1221678 375629 76581 172335 197566 501310 226004 93602 605363 427244 189895 457971 3363181 390726 453821 449193 614920 2033726 285742 184435 958783 135750 535926 162772 484327 143785 27012 623612 6733192
internal_value=0 -7.52663 -6.00725 -2.03969 -6.89314 -7.27088 -5.62251 -0.460287 -3.64602 -9.09394 -2.99692 -4.73174 -8.2074 -0.368226 -9.50347 0.341108 -6.20215 -10.3603 -0.875536 -10.0865 -8.64397 -1.85954 -10.5619 -0.0821401 -10.3911 -0.867794 -10.6718 -10.3256 0.507691 0.773784
internal_weight=0 0.0682593 0.0444343 0.00811045 0.0363239 0.0344685 0.0198287 0.0124667 0.0126349 0.0071938 0.0116036 0.00638336 0.00288826 0.00678192 0.0146398 0.0114563 0.0021975 0.023825 0.0052202 0.0124423 0.0037607 0.0034951 0.0226905 0.00412893 0.00584225 0.00249022 0.0216546 0.00274203 0.00575472 0.0104179
internal_count=23067768 15025817 13818609 4439003 9379606 8157928 6648485 8041951 5682784 965701 5589182 2518220 647866 4362422 1509443 7815947 621528 1207208 3070962 887915 602173 1870354 894455 2569652 360338 1443110 758705 211447 3986793 7362126
shrinkage=0.01


Tree=5
num_leaves=31
num_cat=0
split_feature=0 5 4 4 0 0 4 30 30 1 4 10 30 30 0 0 13 17 1 1 1 11 30 0 3 11 2 13 13 0
split_gain=0.457596 0.237528 0.134252 0.0868554 0.0651164 0.0510425 0.0759267 0.0492421 0.0388825 0.042104 0.0292669 0.0279251 0.0325407 0.0441127 0.0248999 0.0245596 0.0421758 0.0207005 0.0182901 0.016862 0.0158473 0.0150043 0.0136868 0.0102906 0.0092236 0.00696251 0.005153 0.00370523 0.00353909 0.00297028
threshold=-128.21883499999998 0.30881374210800006 0.0023531550000000004 0.024010600000000003 -3.1582749999999997 4.3463950000000011 0.040011100000000008 1991.5000000000002 1997.5000000000002 15.316665000000002 0.020472300000000002 7186.8154255550007 1997.5000000000002 1996.5000000000002 -48.784129999999998 -110.96026499999998 0.74993609704100017 116535.26246650002 18.932595000000003 -57.744819999999997 8.2912000000000017 124.76485325200001 2002.5000000000002 -112.08681499999999 -3707.4999999999995 508.4942377270001 -1225.4999999999998 0.58388969402050017 0.85047138823050006 -3.1582749999999997
decision_type=2 2 2 2 2 2 2 2 2 2 2 8 2 2 2 2 10 2 2 2 2 10 2 2 2 10 2 8 10 2
left_child=3 19 4 17 11 7 25 -4 21 15 24 12 13 14 -3 -10 20 -1 22 -2 -17 -9 -14 -13 -11 -7 29 -6 -23 -21
right_child=1 2 5 -5 27 6 -8 8 9 10 -12 23 18 -15 -16 16 -18 -19 -20 26 -22 28 -24 -25 -26 -27 -28 -29 -30 -31
leaf_value=0.0076880912224711927 -0.05809537390752556 -0.059555812651771761 -0.0063973755874578144 -0.092533007834114195 -0.013283974396549457 0.0070284559672458983 -0.096061215152657017 -0.060132399357689062 -0.093719460914229794 0.0013927141181219527 -0.083822572079667562 -0.09163419545602991 -0.017099678121267458 -0.09198596715781443 0.0063592167593153849 -0.059060170482974121 -0.025855179662147534 -0.038189610193357398 -0.00044879359814509114 -0.097668694447298879 -0.10991512101518555 -0.09700347202561313 -0.057955116556576453 -0.054614787344688123 -0.035580099953940611 -0.025609328901137131 -0.073761185311220737 0.0091142448384076685 -0.07730483894993874 -0.083104045477030347
leaf_weight=0.010402557954216296 0.0012432358403775537 0.0011770977582462594 0.0010178671817055998 0.0010293769731333233 0.0010146588660242533 0.001649824123728715 0.0014192303046858257 0.0014039596592528856 0.0045447300167584803 0.0010824390134296369 0.0010281669491760681 0.0013373921373539543 0.0017409400106339623 0.0019691811577835505 0.0011168705813050534 0.0010804808571092126 0.0019526564932622612 0.0010862025022633237 0.0024966202156430084 0.022491995030134101 0.0014155174417427308 0.0090760308861330685 0.0015500437504092357 0.0017122835619417512 0.0017914193643185925 0.0010824632163966008 0.0010152645526569906 0.0027142405464619657 0.0010139431667614005 0.0014931784785309236
leaf_count=7393610 333865 350606 658853 190090 553032 1149658 74864 366461 259153 646382 177243 108997 891939 110932 692906 311882 909539 458251 1561947 644314 118880 322601 525910 518857 772970 560785 136436 1975410 128070 163325
internal_value=0 -6.99976 -5.63956 -0.4534 -3.38497 -6.92321 -3.67235 -7.4544 -7.7388 -6.54676 -3.80354 -4.43442 -3.63018 -5.7267 -2.74636 -7.73698 -6.0667 0.335059 -2.08589 -9.40404 -8.79008 -9.0762 -3.63425 -7.08491 -2.16543 -0.590181 -9.58279 0.301954 -9.5024 -9.6762
internal_weight=0 0.0726317 0.0463881 0.0125181 0.0168293 0.0295587 0.00415152 0.0254072 0.0243893 0.0128954 0.00390203 0.0131004 0.0100508 0.00426315 0.00229397 0.00899338 0.00444865 0.0114888 0.0057876 0.0262437 0.002496 0.0114939 0.00329098 0.00304968 0.00287386 0.00273229 0.0250004 0.0037289 0.01009 0.0239852
internal_count=23067768 15025817 13747877 8041951 7290536 6457341 1785307 4672034 4013181 3196049 1596595 4762094 4134240 1154444 1043512 1599454 1340301 7851861 2979796 1277940 430762 817132 1417849 627854 1419352 1710443 944075 2528442 450671 807639
shrinkage=0.01


Tree=6
num_leaves=31
num_cat=0
split_feature=0 5 0 4 4 30 30 11 26 1 13 11 11 10 17 1 1 30 4 12 1 30 11 0 30 11 10 2 0 11
split_gain=0.401853 0.195736 0.113347 0.0890618 0.0855871 0.0726656 0.0865357 0.097313 0.0458372 0.0366438 0.024371 0.0208731 0.0207577 0.034867 0.0200007 0.0196872 0.0175086 0.0171447 0.012428 0.0121742 0.00972835 0.00773887 0.0243174 0.00599542 0.00353445 0.00326743 0.00227139 0.00211986 0.00207138 0.00170589
threshold=-128.21883499999998 0.33248882713150008 -3.1582749999999997 0.035288900000000005 0.029489450000000004 1991.5000000000002 1997.5000000000002 37.233733116050004 -2.0414399999999993 -15.017779999999998 0.42789480859900003 183.86840536150004 452.48173775450005 2215.7260030450002 116535.26246650002 19.113825000000002 -57.744819999999997 2002.5000000000002 0.010707700000000002 32.380404971750004 -50.205069999999992 1996.5000000000002 1466.0048813500002 -3.1582749999999997 2000.5000000000002 1199.1872101800002 3062.4672747250002 -1315.4999999999998 -66.039209999999983 1116.7737236100004
decision_type=2 2 2 2 2 2 2 10 10 2 8 10 10 10 2 2 2 2 2 10 2 2 10 2 2 10 10 2 2 10
left_child=4 16 5 10 14 -3 11 9 -9 24 -4 15 18 19 -1 -7 -2 -15 20 25 -10 22 -13 27 -8 -14 -24 -18 -23 -12
right_child=1 2 3 -5 -6 6 7 8 12 -11 29 21 13 17 -16 -17 23 -19 -20 -21 -22 28 26 -25 -26 -27 -28 -29 -30 -31
leaf_value=0.0075881714526010169 -0.051787153812826316 0.0012540891813779573 -0.047798826151706553 -0.086818087728099652 -0.09285927145524045 -0.024927626212329215 -0.075899733351194223 -0.081854755832631534 -0.031623800910710542 -0.03133637809239237 0.0082904465466014255 -0.030511943986452076 -0.019464178050587429 -0.034511600515028829 -0.036530619020400612 -0.083388918096542475 -0.089414636719406998 -0.087398663933336188 -0.043436302615804348 -0.047112486957456422 0.003583280009688048 -0.07610437321478658 -0.080276700991140898 -0.070588742695969237 -0.091798881735279669 0.0039332277427307685 -0.097822199035641988 -0.074798416328807432 -0.091010889663221767 -0.0060438989153428994
leaf_weight=0.010419713443585388 0.001438643827637919 0.0018504066288440584 0.0010093076172997817 0.001555661542732345 0.001007597962944696 0.0012303181524466736 0.0020107947375802566 0.0016648754127133172 0.0010165447828645036 0.0014436398749796409 0.0044996435977268092 0.0010090615222206898 0.0010226486140197943 0.0010145132550881677 0.0011399557973664771 0.0010831733367884231 0.024872508048120127 0.0015486172394790776 0.0010007203115158791 0.0010058328984074991 0.0034432087800275752 0.0010404540373958335 0.0019339587142095385 0.0019361557322584704 0.0045896533832407993 0.0014335092340188591 0.0011929733248520202 0.0010335202439536477 0.0089590749801515823 0.0010180637232244385
leaf_count=7437609 394955 1206531 350549 91714 139855 464703 209510 194573 451421 602475 3230224 381365 552149 364969 464487 149923 719862 235522 365050 365294 2189185 76212 170354 273527 143996 859486 40527 106006 205408 630327
internal_value=0 -6.5463 -5.29434 -1.88245 -0.446728 -5.99261 -6.29335 -4.95764 -3.28177 -7.69736 -0.261877 -8.0144 -2.57096 -3.85077 0.32374 -5.22991 -8.58052 -6.64654 -1.15881 -1.78088 -0.444173 -8.47012 -7.31963 -8.75629 -8.69553 -0.580854 -8.69706 -8.88315 -8.94599 0.564564
internal_weight=0 0.0768575 0.0475767 0.00808268 0.0125673 0.039494 0.0376436 0.0211946 0.0131505 0.00804409 0.00652701 0.016449 0.0114856 0.00602512 0.0115597 0.00231349 0.0292808 0.00256313 0.00546047 0.00346199 0.00445975 0.0141355 0.00413599 0.0278422 0.00660045 0.00245616 0.00312693 0.025906 0.00999953 0.00551771
internal_count=23067768 15025817 13531467 4302814 8041951 9228653 8022122 6533630 5577649 955981 4211100 1488492 5383076 2377420 7902096 614626 1494350 600491 3005656 1776929 2640606 873866 592246 1099395 353506 1411635 210881 825868 281620 3860551
shrinkage=0.01


Tree=7
num_leaves=31
num_cat=0
split_feature=0 5 4 4 0 4 0 30 30 1 4 10 30 30 0 11 17 0 0 14 11 10 5 0 12 13 2 0 2 13
split_gain=0.356046 0.164677 0.109021 0.0816779 0.0462742 0.062972 0.0456584 0.0429873 0.0320771 0.0346319 0.0279137 0.02007 0.0206554 0.029211 0.0199925 0.0376457 0.0192187 0.0178227 0.017388 0.012665 0.0121895 0.0121487 0.0108649 0.00972539 0.00825616 0.00705685 0.0067558 0.00541412 0.00496476 0.00324006
threshold=-128.21883499999998 0.26146986806050004 0.0017868450000000002 0.035288900000000005 4.3463950000000011 0.040011100000000008 -3.1582749999999997 1991.5000000000002 1997.5000000000002 15.316665000000002 0.027316500000000004 7186.8154255550007 1997.5000000000002 1996.5000000000002 -110.96026499999998 402.92325245100005 116535.26246650002 -48.784129999999998 -34.96994999999999 285.83886043300009 854.62295161700013 2215.7260030450002 0.75427703980150007 -61.059479999999986 35.914436287000008 0.86429527392000016 -4600.4999999999991 -112.08681499999999 -788.49999999999989 0.5790473962535001
decision_type=2 2 2 2 2 2 2 2 2 2 2 8 2 2 2 8 2 2 2 2 10 10 2 2 10 8 2 2 2 8
left_child=3 28 6 16 7 20 11 -4 19 14 18 12 13 17 -10 22 -1 -3 24 25 -6 -14 -16 -23 -11 -9 -17 -13 -2 -8
right_child=1 2 4 -5 5 -7 29 8 9 10 -12 27 21 -15 15 26 -18 -19 -20 -21 -22 23 -24 -25 -26 -27 -28 -29 -30 -31
leaf_value=0.0074776558848868649 -0.082002246123262346 -0.051579520052498003 -0.0045911811234652473 -0.090388243813280034 0.006231246798646322 -0.081863092327746051 -0.012175393839141957 -0.082909317214307665 -0.079811300220459 0.0033261048068799308 -0.08180866219635137 -0.077132767830088392 -0.0021900646353809213 -0.078133479718018858 -0.049310842538178336 -0.094001142684473266 -0.034967304913671518 0.0059622759066346722 -0.056852167418183143 -0.043998189865312773 -0.033787396771091285 -0.016032002845948145 -0.009945095595588524 -0.052835843968930422 -0.032523955574263179 -0.060031391576051245 -0.062471932019505821 -0.049303689514307837 -0.060216092374535554 0.009116771289546851
leaf_weight=0.010409730517819573 0.02687372237940111 0.001106337237236632 0.0011402307550385509 0.0010157609648853158 0.0022265265434624477 0.0017130439869066372 0.0010060705616644621 0.012158093497117608 0.0058917649981204967 0.0017736411158615325 0.0010160218710089095 0.0012366922858525475 0.0024972765623960669 0.0018031105025124727 0.0012826581441418572 0.0015063791700554718 0.0011885728377363245 0.0010483347083721801 0.0010854081300349944 0.0010292925971023834 0.0011564672925120645 0.0016294902113247467 0.0015463918150104838 0.0012835647132388717 0.0010071737313933626 0.0015164387618851183 0.0012382056787361153 0.001608151439120519 0.0010883772383853954 0.0024675811080849814
leaf_count=7464008 764833 304047 733832 109276 1543976 78372 518012 416098 299388 1020813 108026 94624 1534156 88411 422127 74955 468667 634323 329379 247332 507696 773462 789122 371221 417475 259786 273433 447157 176521 1797240
internal_value=0 -6.1521 -5.11577 -0.440252 -6.04624 -3.24635 -2.904 -6.48947 -6.71091 -5.74699 -3.51652 -3.81387 -3.10744 -4.84355 -6.69677 -5.33911 0.312797 -2.35831 -2.29076 -7.7826 -0.744902 -1.83744 -2.77931 -3.22487 -0.96583 -8.03723 -7.97769 -6.14014 -8.11543 0.294994
internal_weight=0 0.0809364 0.0529743 0.0126141 0.0372877 0.00509604 0.0156866 0.0321917 0.0310515 0.0163476 0.00488224 0.012213 0.00936811 0.00395778 0.0114654 0.00557363 0.0115983 0.00215467 0.00386622 0.0147038 0.00338299 0.00541033 0.00282905 0.00291305 0.00278081 0.0136745 0.00274458 0.00284484 0.0279621 0.00347365
internal_count=23067768 15025817 14084463 8041951 7521810 2130044 6562653 5391766 4657934 3734718 1875693 4247401 3705620 1026781 1859025 1559637 7932675 938370 1767667 923216 2051672 2678839 1211249 1144683 1438288 675884 348388 541781 941354 2315252
shrinkage=0.01


Tree=8
num_leaves=31
num_cat=0
split_feature=0 5 4 4 0 0 4 30 30 1 4 17 10 30 30 0 11 0 0 1 11 5 3 11 30 2 0 2 17 5
split_gain=0.317851 0.140624 0.0892535 0.0759441 0.0388756 0.0386975 0.0557853 0.0358853 0.0271795 0.0326537 0.0237108 0.018442 0.0175914 0.0183691 0.0266375 0.0167995 0.0326225 0.0156783 0.0149421 0.0119984 0.0109439 0.00906201 0.0088437 0.0074192 0.00735203 0.00565425 0.00543932 0.00535521 0.00286749 0.00257127
threshold=-128.21883499999998 0.33248882713150008 0.0017868450000000002 0.040011100000000008 -3.1582749999999997 4.3463950000000011 0.040011100000000008 1991.5000000000002 1997.5000000000002 15.316665000000002 0.025536600000000003 116535.26246650002 7186.8154255550007 1997.5000000000002 1996.5000000000002 -110.96026499999998 402.92325245100005 67.433550000000011 -48.784129999999998 18.932595000000003 124.76485325200001 0.75427703980150007 -3707.4999999999995 829.72538075600016 2002.5000000000002 -718.49999999999989 -112.08681499999999 -4586.4999999999991 23954.794853300005 0.83041308272850012
decision_type=2 2 2 2 2 2 2 2 2 2 2 2 8 2 2 2 8 2 2 2 10 2 2 10 2 2 2 2 2 2
left_child=3 17 4 11 12 7 23 -4 20 15 22 -1 13 14 18 -10 21 25 -3 24 -9 -17 -11 -7 -15 -2 -14 -18 -22 -24
right_child=1 2 5 -5 -6 6 -8 8 9 10 -12 -13 26 19 -16 16 27 -19 -20 -21 28 -23 29 -25 -26 -27 -28 -29 -30 -31
leaf_value=0.0073527184919925858 -0.07610474441695933 -0.046455397433204135 -0.0047411015020077368 -0.085960412980735187 0.0036268518752423391 0.0062466638678489676 -0.075707561118310701 -0.048060709664707942 -0.074188929183409733 0.0019207709452434105 -0.07342804875059869 -0.033564192338666671 -0.072684846384559021 -0.014973988784651004 -0.072677819872352376 -0.045957619652743135 -0.08628526774549064 -0.035949851847848387 0.0071530156859659338 0.0011994802061047918 -0.076614178995444371 -0.009761075557800045 -0.040434169336676061 -0.026847551379016434 -0.046436901443579419 -0.052101477372374666 -0.044827928892749724 -0.058274574469580245 -0.059610944393546118 -0.01882120625562143
leaf_weight=0.010380333672226905 0.031153295588818963 0.0010775515581598061 0.0011249664467115608 0.0010457915888126845 0.0031986981859774008 0.0020949911545884428 0.0017032412264208483 0.001678828527514665 0.0058021749508855277 0.0013308356923145137 0.0010074696150339513 0.0012323146379704672 0.0012776459690572173 0.0016013532177477918 0.0018575193675280928 0.0012427527611454988 0.0015766657897421377 0.0010427745902695789 0.0010047262656246447 0.0022024891253794587 0.01188466157580037 0.0015597217414250464 0.0012189140366934961 0.0010011229700168656 0.0013850820379152085 0.0010132937077305109 0.0015528578728800657 0.0012035668524564807 0.0010821447392967984 0.0010037286112412058
leaf_count=7478438 1024891 297346 723004 92530 2183274 1476608 72997 395287 278838 784010 116206 470983 87369 776754 87336 402764 73593 299056 620662 1363369 375213 789122 447728 469044 444813 170403 431175 256645 126019 452291
internal_value=0 -5.8056 -4.77376 -0.433976 -2.7339 -5.62051 -2.97413 -6.02096 -6.22494 -5.3216 -3.06071 0.301068 -3.56214 -2.88679 -4.51474 -6.22735 -4.98896 -7.41115 -2.05886 -1.65074 -7.20848 -2.58124 -1.84667 -0.445429 -2.95662 -7.53486 -5.74021 -7.41594 -7.51952 -3.06739
internal_weight=0 0.0848831 0.0516737 0.0126584 0.0151579 0.0365158 0.00479936 0.0317164 0.0305915 0.0159458 0.00456095 0.0116126 0.0119592 0.00912872 0.0039398 0.0113849 0.00558271 0.0332094 0.00208228 0.00518892 0.0146456 0.00280247 0.00355348 0.00309611 0.00298644 0.0321666 0.0028305 0.00278023 0.0129668 0.00222264
internal_count=23067768 15025817 13531467 8041951 6292098 7239369 2018649 5220720 4497716 3601197 1800235 7949421 4108824 3590280 1005344 1800962 1522124 1494350 918008 2584936 896519 1191886 1684029 1945652 1221567 1195294 518544 330238 501232 900019
shrinkage=0.01


Tree=9
num_leaves=31
num_cat=0
split_feature=0 5 0 4 4 30 30 11 4 11 10 13 1 3 17 14 5 1 12 1 11 11 1 0 2 1 30 17 11 1
split_gain=0.285663 0.121366 0.0821637 0.0698038 0.0676581 0.0551419 0.0567471 0.0695032 0.0349465 0.0305235 0.0374171 0.0272035 0.0232384 0.0199381 0.0176117 0.0140239 0.00996667 0.00877495 0.0079966 0.00786658 0.00525049 0.00426793 0.00315778 0.00947933 0.00282223 0.00260258 0.00251687 0.0057953 0.00249098 0.00189128
threshold=-128.21883499999998 0.30046155528850005 -3.1582749999999997 0.047499650000000004 0.035288900000000005 1991.5000000000002 1997.5000000000002 37.233733116050004 0.035288900000000005 452.48173775450005 2215.7260030450002 0.36135004699600004 -15.017779999999998 -4605.4999999999991 116535.26246650002 230.01068036050003 0.56267236297150014 -11.13735 33.303078492800005 -57.744819999999997 1116.7737236100004 408.42946423200004 40.845305000000003 -49.86818499999999 -1135.4999999999998 9.8629250000000024 2000.5000000000002 102600.92770350001 1382.2804820750002 -22.970754999999997
decision_type=2 2 2 2 2 2 2 10 2 10 10 10 2 2 2 2 2 2 10 2 10 10 2 2 2 2 2 2 10 2
left_child=3 19 5 14 11 -3 15 12 9 16 18 -4 26 -12 -1 17 -9 -7 20 -2 -11 -17 23 25 -21 -19 27 -8 -13 -18
right_child=1 2 4 -5 -6 6 7 8 -10 10 13 28 -14 -15 -16 21 29 22 -20 24 -22 -23 -24 -25 -26 -27 -28 -29 -30 -31
leaf_value=0.0071065312290948465 -0.047169826306509031 0.0015083481654341647 -0.051144708429728028 -0.082030964250138866 -0.070052843915706653 -0.046389936411983593 -0.045241297769989246 -0.030831146399009551 -0.076920186147557676 -0.023071354454140481 -0.076748302706197008 0.0081528931564386949 -0.028620566660628382 -0.02841174018366896 -0.032255192488961089 -0.02621981239511206 -0.011570134409056158 -0.085775340153886132 -0.040010133814119435 -0.071589731546785482 0.00437813834830006 -0.05540695582524853 -0.075711151358611894 -0.040313042172493943 -0.05503345316947466 -0.068633819712995467 -0.074305219223545896 -0.076473915966557823 -0.0090699551276831308 0.0039609208373321946
leaf_weight=0.01036523772456488 0.001442892369493686 0.0019043885993447187 0.0010056482999539762 0.0010584373760813568 0.0019356040133187149 0.0016069615909758408 0.0011002961655564023 0.0013447796505847709 0.0014075659960142159 0.0012050778426182518 0.0024653063216064641 0.0048322369136039045 0.0015610646084018862 0.0013051249972834134 0.0012767363762835613 0.0010021882559193554 0.0010250740251707136 0.0010172082658914654 0.0010036785725254791 0.030969227314044057 0.0016522530292746309 0.0010017941871167668 0.0074111794972731007 0.0011673785578179025 0.0010650051003970864 0.0068530870847458569 0.0057718876454651005 0.0012913668103076148 0.0010164034961669399 0.0033348858356224698
leaf_count=7492863 312753 1221678 292946 75671 94773 338417 176521 552266 93602 578049 189895 3476152 605363 457971 473417 307028 503700 55472 342330 771453 949975 107086 152613 264285 123002 284542 149891 33926 575132 2014996
internal_value=0 -5.4987 -4.58794 -0.427901 -1.78444 -5.11866 -5.34403 -4.32188 -2.9531 -2.45293 -3.76096 -0.310107 -6.39711 -6.00167 0.278986 -6.59082 -0.703137 -6.86937 -1.57281 -7.00105 -0.719867 -4.08105 -7.08727 -6.6905 -7.10393 -7.08493 -7.0731 -6.21052 0.515983 0.0309401
internal_weight=0 0.0886996 0.0552224 0.0127004 0.00878989 0.0464325 0.0445282 0.0244684 0.0147437 0.0133362 0.00763144 0.00685429 0.00972462 0.00377043 0.011642 0.0200598 0.00570474 0.0180558 0.00386101 0.0334771 0.00285733 0.00200398 0.0164489 0.00903767 0.0320342 0.0078703 0.00816355 0.00239166 0.00584864 0.00435996
internal_count=23067768 15025817 13818609 8041951 4439003 9379606 8157928 6648485 5682784 5589182 2518220 4344230 965701 647866 7966280 1509443 3070962 1095329 1870354 1207208 1528024 414114 756912 604299 894455 340014 360338 210447 4051284 2518696
shrinkage=0.01


Tree=10
num_leaves=31
num_cat=0
split_feature=0 5 4 4 0 30 30 0 4 1 1 17 10 30 30 0 10 1 30 30 13 0 0 0 0 10 2 0 13 5
split_gain=0.258308 0.105873 0.0782094 0.0640467 0.0369912 0.0316616 0.0344843 0.0426054 0.0321942 0.0205824 0.0196491 0.0169372 0.0145419 0.015692 0.0206562 0.0144928 0.0102727 0.00959749 0.0186012 0.0094154 0.0117427 0.00796742 0.00624282 0.0300068 0.00468987 0.00760719 0.00408398 0.00346765 0.00318956 0.00318149
threshold=-128.21883499999998 0.26146986806050004 0.0017868450000000002 0.047499650000000004 -3.1582749999999997 1991.5000000000002 1998.5000000000002 -51.837189999999993 0.035288900000000005 37.28412500000001 26.362400000000004 116535.26246650002 7186.8154255550007 1997.5000000000002 1996.5000000000002 -48.47057499999999 2215.7260030450002 -20.103429999999996 1995.5000000000002 2002.5000000000002 0.70164593031900002 -63.14961499999999 -76.806124999999994 -109.10158499999999 -95.055629999999994 7611.1132749900016 -718.49999999999989 -112.08681499999999 0.56741905346300014 0.90842944660150005
decision_type=2 2 2 2 2 2 2 2 2 2 2 2 8 2 2 2 10 2 2 2 10 2 2 2 2 10 2 2 8 2
left_child=3 26 4 11 12 -4 17 10 9 -9 19 -1 13 14 15 -3 -15 18 -7 20 -8 -18 23 -21 25 -19 -2 -14 -6 -26
right_child=1 2 5 -5 28 6 7 8 -10 -11 -12 -13 27 16 -16 -17 21 24 -20 22 -22 -23 -24 -25 29 -27 -28 -29 -30 -31
leaf_value=0.0070806231318658406 -0.067241200853563124 -0.043886848867200685 -0.003418590786326225 -0.076139166568245459 -0.012005445802067596 -0.063359564516403552 -0.063475930281221116 0.004760578721573254 -0.064657494451342862 -0.039723561385918649 -0.022887988063558719 -0.031067812506980125 -0.063455194567342832 -0.001860161691459476 -0.064344882763799904 0.0064144387926553751 -0.013521048893947132 -0.030240691965031749 -0.010632903190185655 -0.068306409798243387 -0.015545972189926252 -0.045314988957319446 -0.075415880492172099 -0.014162731541865122 -0.067450414003472417 -0.066956781902873561 -0.047329624813886195 -0.042706391549897207 0.0090923960305967326 -0.053008580545434933
leaf_weight=0.010299463816441643 0.031975289655031824 0.0012667869631302064 0.0013264356526397894 0.0011285629146831075 0.0010089619297968249 0.0018928917046363561 0.0010042126834683982 0.0032696151167973535 0.0013509894460075331 0.0015253702216905252 0.0018034411631612224 0.0013120936774835288 0.0014572747193526414 0.0025584074267133161 0.002122692973403506 0.0010455323454019469 0.0016378584828281584 0.0010110210407123781 0.0010348875297097049 0.0050703567504706299 0.0010410840795224141 0.0015193360365444164 0.0027481281380247174 0.0012824886612110564 0.015118953654573721 0.0012771366165722495 0.001064372160106907 0.0018008259918611538 0.0024726118254702056 0.0016965829101176493
leaf_count=7492863 776225 312118 849044 75671 494809 187305 167301 2047850 78631 528069 688765 473417 94624 1534156 88411 626252 739351 239319 390068 143373 452700 405332 209840 579704 666659 73819 165129 447157 1820443 219363
internal_value=0 -5.22526 -4.42648 -0.422014 -2.60644 -5.15059 -5.30568 -4.32212 -2.15392 -0.939062 -5.35115 0.276989 -3.36054 -2.77054 -4.18202 -2.11427 -1.6753 -6.15818 -4.47222 -5.84664 -3.90789 -2.88212 -6.28234 -5.73761 -6.41656 -5.07338 -6.65997 -5.19869 0.297823 -6.59933
internal_weight=0 0.0923835 0.0593439 0.0127401 0.0168903 0.0424536 0.0411272 0.0190957 0.00614597 0.00479499 0.0129497 0.0116116 0.0134087 0.0101506 0.00443501 0.00231232 0.0057156 0.0220315 0.00292778 0.0111463 0.0020453 0.00315719 0.00910097 0.00635285 0.0191037 0.00228816 0.0330397 0.0032581 0.00348157 0.0168155
internal_count=23067768 15025817 14084463 8041951 6562653 7521810 6672766 4896233 2654550 2575919 2241683 7966280 4247401 3705620 1026781 938370 2678839 1776533 577373 1552918 620001 1144683 932917 723077 1199160 313138 941354 541781 2315252 886022
shrinkage=0.01


Tree=11
num_leaves=31
num_cat=0
split_feature=0 5 4 4 0 13 0 4 4 17 10 10 30 30 0 0 1 30 1 0 8 0 11 5 30 11 30 1 1 0
split_gain=0.234762 0.0934814 0.0650165 0.0592172 0.03123 0.02784 0.0254545 0.0347912 0.0236635 0.0164216 0.0144963 0.0129555 0.0141501 0.0195693 0.0121634 0.0120534 0.0104568 0.0100348 0.0206904 0.0174641 0.0116087 0.00817901 0.0204422 0.0098273 0.00799961 0.00704194 0.00625043 0.00605254 0.0039976 0.003754
threshold=-128.21883499999998 0.33993733983400004 0.0017868450000000002 0.040011100000000008 -3.1582749999999997 0.90021978286200011 2.4074800000000001 0.040011100000000008 0.029489450000000004 116535.26246650002 7292.8314886650014 7186.8154255550007 1997.5000000000002 1996.5000000000002 -48.784129999999998 67.433550000000011 18.932595000000003 1997.5000000000002 26.362400000000004 -66.69677999999999 15.446826636900001 -109.10158499999999 402.92325245100005 0.75956375217750016 2002.5000000000002 854.62295161700013 2002.5000000000002 65.805450000000022 -56.511029999999991 -112.08681499999999
decision_type=2 2 2 2 2 8 2 2 2 2 8 8 2 2 2 2 2 2 2 2 2 2 8 2 2 10 2 2 2 2
left_child=3 15 4 9 11 6 17 25 10 -1 -7 12 13 14 -3 27 26 19 21 -4 -20 -19 23 -23 -24 -8 -14 28 -2 -13
right_child=1 2 5 -5 -6 8 7 -9 -10 -11 -12 29 16 -15 -16 -17 -18 18 20 -21 -22 22 24 -25 -26 -27 -28 -29 -30 -31
leaf_value=0.00727853796456133 -0.043813506928819898 -0.039846147091292243 -0.024963418389841185 -0.069309931836877572 0.0035954215440311579 -0.0039639887596609087 0.0081839017483992162 -0.063751159218722639 -0.068466869635735464 -0.029988513370673639 -0.047173311916418437 -0.060648257529294397 -0.013382296525350199 -0.060664982588414677 0.0073058653043112168 -0.030509265960747007 0.0016820020309074946 -0.062731929256157198 -0.05265458255512246 -0.063032842679006371 -0.011571079531802839 -0.044725219696541113 -0.038215986818462104 -0.0046271801381818261 -0.07146183832332613 -0.025294932900914963 -0.041373064389092787 -0.038712907337545753 -0.06393446303405792 -0.038887020214695062
leaf_weight=0.010181879728472508 0.001015461614587653 0.001195218708876844 0.0013098464668273016 0.0012579167919715148 0.0031552187625092367 0.0029580603574882449 0.0015288568822903184 0.0017020302201271598 0.0010582312651896686 0.0013377513219667856 0.0010527549445306097 0.0014803532565730304 0.0016945633906247926 0.0021503800951996328 0.0010088753772167242 0.001199236610296194 0.0022199615777701576 0.0060955335574738303 0.00104074883276395 0.015057193254575441 0.0020279250118001575 0.0011868226808045021 0.0010224176970542445 0.0012602042270706273 0.0024776886529650488 0.0010665878624801506 0.0015074668316444884 0.0010224783507132287 0.035756474525590387 0.0017066475315358201
leaf_count=7478438 189944 296027 400952 92530 2164596 1551863 1079296 58181 116465 470983 168873 86905 774225 87217 618088 319901 1355870 269814 218377 586919 916127 345399 249216 648054 136242 458898 442702 176601 880106 428959
internal_value=0 -4.97916 -4.16253 -0.416309 -2.46187 -4.83367 -5.14443 -2.86153 -2.64037 0.295079 -1.53055 -3.14859 -2.57781 -3.92026 -1.82634 -6.17211 -1.49966 -5.4561 -4.8685 -5.99862 -2.55047 -5.45917 -4.62483 -2.4075 -6.17504 -0.557409 -2.65599 -6.27115 -6.33788 -4.89951
internal_weight=0 0.0959572 0.0569636 0.0127775 0.0161187 0.0408449 0.0357759 0.00429747 0.00506905 0.0115196 0.00401082 0.0129635 0.00977647 0.00435447 0.00220409 0.0389937 0.00542199 0.0314784 0.0151113 0.016367 0.00306867 0.0120427 0.00594713 0.00244703 0.00350011 0.00259544 0.00320203 0.0377944 0.0367719 0.003187
internal_count=23067768 15025817 13459265 8041951 6254589 7204676 5367475 1596375 1837201 7949421 1720736 4089993 3574129 1001332 914115 1566552 2572797 3771100 2783229 987871 1134504 1648725 1378911 993453 385458 1538194 1216927 1246651 1070050 515864
shrinkage=0.01


Tree=12
num_leaves=31
num_cat=0
split_feature=0 5 4 4 0 4 0 13 17 30 11 30 0 5 14 11 1 1 1 1 0 5 30 10 11 13 2 13 13 7
split_gain=0.214385 0.0829649 0.0639525 0.0550054 0.0458762 0.0221568 0.0417963 0.0263405 0.015831 0.0152502 0.032085 0.021804 0.0208367 0.0120474 0.00993459 0.00957565 0.0160697 0.0108834 0.00740546 0.00723867 0.0153881 0.00695571 0.00660108 0.0164245 0.00649149 0.00600341 0.00388687 0.00365297 0.00359969 0.0054454
threshold=-128.21883499999998 0.26146986806050004 0.0028433600000000001 0.040011100000000008 -3.1582749999999997 0.047499650000000004 7.2141550000000008 0.90123276865500013 116535.26246650002 1997.5000000000002 37.233733116050004 1996.5000000000002 -48.47057499999999 0.80653577346900007 190.72383553500003 331.30034869500008 26.362400000000004 8.2912000000000017 10.651125000000002 -15.017779999999998 -66.69677999999999 0.78556077319250017 1997.5000000000002 2195.3221172400004 854.62295161700013 0.50121481687250002 -647.49999999999989 0.62636476773900018 0.70164593031900002 0.36188291106600007
decision_type=2 2 2 2 2 2 2 8 2 2 10 2 2 2 2 10 2 2 2 2 2 2 2 10 10 8 2 10 10 2
left_child=3 26 4 8 9 6 7 14 -1 11 21 12 18 -9 22 -12 17 -17 -3 -16 -21 -11 -4 -24 -8 -6 -2 -18 -25 -30
right_child=1 2 5 -5 25 -7 24 13 -10 10 15 -13 -14 -15 19 16 27 -19 -20 20 -22 -23 23 28 -26 -27 -28 -29 29 -31
leaf_value=0.0072532208601103852 -0.060211923931324414 -0.059342608949331618 -0.059428804845054563 -0.065106481325915996 -0.019491234089030269 -0.067325516480941816 0.0024048084070189459 -0.0399217315152837 -0.028947964783693721 -0.06461222968297553 -0.00047229479540294734 -0.059898687322384195 0.0058620543536050031 -0.0027264487139516771 -0.055778096534958806 -0.013831217059011811 0.0085008029719186671 -0.05269715913753973 -0.02389322455746112 -0.010024244714874859 -0.050253322718889638 -0.033549675147843003 -0.023146648759821087 -0.06525150241424893 -0.029129673392085002 0.0084585846835612145 -0.040275805790561996 -0.016113901577204461 -0.057980888158394264 -0.032426640875802659
leaf_weight=0.01011557767585214 0.035131885185141432 0.0013748429770763515 0.013626731860310048 0.0013253828270871637 0.0010027998524351205 0.0053660268914637044 0.0018369836761535907 0.0019124102309108209 0.0013718033583116638 0.0020593493516112287 0.0026157538470663599 0.0043523126906284126 0.0012743751337372933 0.0015987998206153933 0.0020325467932900128 0.0011274996641399415 0.0011574585941361848 0.0019958950074852044 0.0010313737924189104 0.0017052528428257441 0.0021492238467882832 0.0011091529875699724 0.0020002143939191752 0.0025305745965400472 0.0010126399240978357 0.00328904389565432 0.0010059566258202582 0.0012584268886820515 0.0026380476423347727 0.0012192961676897871
leaf_count=7478438 788488 199376 509773 92530 421313 188726 1189266 397607 470983 85831 1440907 156148 746758 782180 160127 444751 688858 415426 283186 721119 306165 214542 708877 187970 373862 2398063 152866 608573 129580 325479
internal_value=0 -4.75687 -4.06651 -0.410773 -2.76511 -4.84311 -4.5472 -4.87985 0.293014 -3.42095 -2.67335 -4.47481 -2.68324 -2.29852 -5.20469 -1.62411 -2.36875 -3.86671 -4.4148 -4.05079 -3.24556 -5.37386 -5.51326 -4.81533 -0.880126 0.192804 -5.9657 -0.432092 -5.59835 -4.99033
internal_weight=0 0.0994149 0.063277 0.0128128 0.0236483 0.0396287 0.0342627 0.0314131 0.0114874 0.0193564 0.0113235 0.0080329 0.00368059 0.00351121 0.0279019 0.00815503 0.00553928 0.00312339 0.00240622 0.00588702 0.00385448 0.0031685 0.0220149 0.00838813 0.00284962 0.00429184 0.0361378 0.00241589 0.00638792 0.00385734
internal_count=23067768 15025817 14084463 8041951 8103732 5980731 5792005 4228877 7949421 5284356 3898888 1385468 1229320 1179787 3049090 3598515 2157608 860177 482562 1187411 1027284 300373 1861679 1351906 1563128 2819376 941354 1297431 643029 455059
shrinkage=0.01


Tree=13
num_leaves=31
num_cat=0
split_feature=0 5 4 4 0 30 30 0 4 17 1 1 0 10 13 30 1 30 1 17 1 30 1 1 1 30 1 7 0 1
split_gain=0.196621 0.0746636 0.0529385 0.0513091 0.0268803 0.0231293 0.0237719 0.034324 0.0232541 0.0152758 0.013603 0.0136029 0.0114152 0.0106739 0.012129 0.0119229 0.00984349 0.00808084 0.00785944 0.00696664 0.00637306 0.0138206 0.00550616 0.00513185 0.00415088 0.00388181 0.00331192 0.004432 0.00275542 0.0089969
threshold=-128.21883499999998 0.35283902140950002 0.0017868450000000002 0.040011100000000008 -3.1582749999999997 1991.5000000000002 1998.5000000000002 -51.837189999999993 0.035288900000000005 116535.26246650002 37.28412500000001 26.362400000000004 67.433550000000011 7186.8154255550007 0.83298497786550019 1997.5000000000002 19.588645000000003 1996.5000000000002 8.2912000000000017 25035.767601800002 -20.103429999999996 1995.5000000000002 65.805450000000022 -56.511029999999991 -57.744819999999997 1995.5000000000002 -29.381179999999997 0.72746189249650006 -66.69677999999999 -17.018314999999998
decision_type=2 2 2 2 2 2 2 2 2 2 2 2 2 8 8 2 2 2 2 2 2 2 2 2 2 2 2 2 2 2
left_child=3 12 4 9 13 -4 20 11 10 -1 -9 19 22 14 15 17 18 -3 -17 23 21 -7 24 -8 -2 -22 -15 -28 29 -27
right_child=1 2 5 -5 -6 6 7 8 -10 -11 -12 -13 -14 26 -16 16 -18 -19 -20 -21 25 -23 -24 -25 -26 28 27 -29 -30 -31
leaf_value=0.0072278641376861954 -0.037014581639368584 -0.027117412106946914 -0.003200316218586624 -0.061412381742640812 0.0035359628070841323 -0.054286665911357189 -0.033394398384636904 0.0057864106232359547 -0.05386753806466809 -0.02797163304166839 -0.033119771492479855 -0.020719070661411838 -0.027009638341275066 -0.057454032619484015 -0.0051169769749728799 -0.010581601220024679 0.00081232324353891971 -0.057616702979606707 -0.046661518471329204 -0.02531383608949838 -0.03806972373694497 -0.0091607615429729825 -0.034684944642637765 -0.05504398164255947 -0.057632306226388763 -0.061518124702638351 -0.023163178785649153 -0.052174833457204979 -0.057105692136689562 -0.023573747536530167
leaf_weight=0.010049884649951379 0.0010011782896525148 0.0015797893540814316 0.0013372350269412741 0.0013907120059126765 0.0030826618845833922 0.001968677685579733 0.0012433588787972305 0.0030979135232857007 0.0012872037392359648 0.0014053155405442394 0.0012658756440689922 0.0018425181311590975 0.0013534819120408759 0.0012581871226227117 0.0025328882656061582 0.0010575354835767881 0.0015772163281591034 0.0019300165493139063 0.0014070509046191226 0.0010398601096069946 0.0013633359911409118 0.0010357778636106427 0.0011239071988626828 0.0091699909306900418 0.039563937942278526 0.0015253643445667375 0.0011074272088364967 0.0010039203788683173 0.015945634174663662 0.0010585140382444137
leaf_count=7478438 195450 529635 821344 92530 2129028 174270 303627 1951346 69814 470983 457814 663332 359898 75136 1214985 454727 951734 47050 345325 346782 314366 367345 193121 832811 953705 40139 332586 103058 555220 242169
internal_value=0 -4.55503 -3.83137 -0.405395 -2.30992 -4.41402 -4.54486 -3.71626 -1.65171 0.290962 -0.549974 -4.59375 -5.55906 -2.9202 -2.40534 -3.04048 -1.86957 -4.38887 -3.11799 -4.99944 -5.23049 -3.87296 -5.65185 -5.2459 -5.71234 -5.43552 -4.46112 -3.69579 -5.55534 -4.59738
internal_weight=0 0.10276 0.059718 0.0128459 0.0165367 0.0431813 0.041844 0.0189467 0.00565099 0.0114552 0.00436379 0.0132957 0.0430425 0.013454 0.0100845 0.00755161 0.0040418 0.00350981 0.00246459 0.0114532 0.0228973 0.00300446 0.041689 0.0104133 0.0405651 0.0198928 0.00336953 0.00211135 0.0185295 0.00258388
internal_count=23067768 15025817 13323643 8041951 6183264 7140379 6319035 4625526 2478974 7949421 2409160 2146552 1702174 4054236 3543456 2328471 1751786 576685 800052 1483220 1693509 541615 1342276 1136438 1149155 1151894 510780 435644 837528 282308
shrinkage=0.01


Tree=14
num_leaves=31
num_cat=0
split_feature=0 5 4 4 0 30 30 11 4 0 13 17 11 10 13 3 5 0 5 1 8 29 13 0 1 30 10 11 13 1
split_gain=0.181012 0.0672215 0.0516143 0.0480463 0.0460607 0.0218108 0.0267647 0.0296662 0.0167116 0.0307025 0.0210702 0.0146234 0.010953 0.0159381 0.010837 0.0107233 0.00927837 0.00772115 0.00723347 0.00752421 0.0119215 0.00646405 0.00616322 0.00548512 0.00545957 0.00401389 0.00941168 0.00360321 0.00316701 0.0052003
threshold=-128.21883499999998 0.29216962867400004 0.0036154050000000004 0.047499650000000004 -3.1582749999999997 1991.5000000000002 1997.5000000000002 37.233733116050004 0.047499650000000004 7.2141550000000008 0.90123276865500013 116535.26246650002 433.34593397100008 2215.7260030450002 0.8388436296920001 -4670.4999999999991 0.81764643850150009 -112.08681499999999 0.92370282586050012 -15.017779999999998 52.623602862100007 -0.47079599999999994 0.49392136262750003 67.433550000000011 -47.563159999999996 1997.5000000000002 2195.3221172400004 508.4942377270001 0.71594272551400018 -29.381179999999997
decision_type=2 2 2 2 2 2 2 10 2 2 8 2 8 10 8 2 2 2 2 2 2 10 8 2 2 2 10 10 10 2
left_child=3 23 4 11 5 -3 14 17 9 10 18 -1 24 21 -7 -15 -12 -8 25 -20 -21 -14 -6 -2 -9 -4 -27 -11 -28 -30
right_child=1 2 8 -5 22 6 7 12 -10 27 16 -13 13 15 -16 -17 -18 -19 19 20 -22 -23 -24 -25 -26 26 28 -29 29 -31
leaf_value=0.0069795018788874454 -0.054315588516806457 0.010611359553752015 -0.053894074695555592 -0.059709521995547833 -0.019758528794960588 -0.053283857465172994 -0.056758156215896451 -0.021924182856927207 -0.061042160596289689 0.0028153059478788533 -0.036503533686748177 -0.027003101031012812 -0.029520719649221171 -0.057867068896366787 -0.023790810114980868 -0.016679393588695496 -0.0023381386316749441 -0.025147341657506761 -0.052117340536859978 -0.0024632583668711171 -0.044268325307239585 0.0016160115085366309 0.008355048823847475 -0.03087154975003446 0.0055793154155059669 -0.02504982890904104 -0.059448166941896308 -0.022018976799907369 -0.054445901974445959 -0.029977011620928595
leaf_weight=0.010046106100320196 0.039990069538570427 0.0011051368437231526 0.013331754975600796 0.0013820378787108298 0.0010015597135020196 0.007403399314023452 0.0029807696526518161 0.0010084071513842827 0.005577179161722289 0.0013681401032896714 0.0017382460596583318 0.0014489311097507515 0.0010007813013506164 0.0016731700183052478 0.0014979407789005297 0.0010159146870165614 0.0014646282727220905 0.0010430999407737849 0.001908102595418848 0.001194374501321426 0.0015905495224760593 0.001997569856891479 0.0035216250795157 0.0010235210098581409 0.0025389023458363144 0.001834559214115794 0.0025278174675288367 0.0010196545510396948 0.0022228333867926296 0.0014256083724055767
leaf_count=7492863 935477 682152 472061 75671 412882 497984 84193 382470 182364 887565 352952 473417 368998 155762 347351 354296 703345 278248 117998 549708 219312 1114064 2591555 207805 1506575 596264 178593 421561 106561 317721
internal_value=0 -4.37062 -3.73803 -0.400166 -2.70689 -3.27457 -3.49079 -2.59031 -4.50821 -4.22676 -4.50833 0.269605 -1.60292 -2.46301 -4.83207 -4.23067 -2.08802 -4.85637 -4.80607 -3.68202 -2.63393 -0.877672 0.212992 -5.37305 -0.223921 -5.05324 -4.49379 -0.778962 -5.08453 -4.48848
internal_weight=0 0.106005 0.0649917 0.0128771 0.0277883 0.0232651 0.02216 0.0132586 0.0372034 0.0316263 0.0292385 0.011495 0.00923475 0.00568744 0.00890134 0.00268908 0.00320287 0.00402387 0.0260356 0.00469303 0.00278492 0.00299835 0.00452318 0.0410136 0.00354731 0.0213426 0.00801082 0.00238779 0.00617626 0.00364844
internal_count=23067768 15025817 13882535 8041951 8776530 5772093 5089941 4244606 5106005 4923641 3614515 7966280 3882165 1993120 845335 510058 1056297 362441 2558218 887018 769020 1483062 3004437 1143282 1889045 1671200 1199139 1309126 602875 424282
shrinkage=0.01


Tree=15
num_leaves=31
num_cat=0
split_feature=0 5 4 4 0 30 30 0 4 17 1 1 0 10 13 30 1 30 1 30 13 1 30 1 0 0 1 30 1 7
split_gain=0.16728 0.0612035 0.0452057 0.0442267 0.0236626 0.0198475 0.0195076 0.0291416 0.0201428 0.0142616 0.0125408 0.0114961 0.00999352 0.00911056 0.0107429 0.0100571 0.0089601 0.00695741 0.00674205 0.00591588 0.00983214 0.00532423 0.0118629 0.004937 0.00409422 0.0158853 0.00388257 0.00348687 0.0027513 0.00487184
threshold=-128.21883499999998 0.35904675683150006 0.040011100000000008 0.0017868450000000002 -3.1582749999999997 1991.5000000000002 1998.5000000000002 -51.837189999999993 0.035288900000000005 116535.26246650002 37.652190000000004 26.362400000000004 67.433550000000011 7186.8154255550007 0.83298497786550019 1997.5000000000002 19.588645000000003 1996.5000000000002 8.2912000000000017 2002.5000000000002 0.66748413805900009 -20.103429999999996 1995.5000000000002 65.805450000000022 -64.117934999999989 -109.10158499999999 -57.744819999999997 1995.5000000000002 -29.381179999999997 0.7838862881530001
decision_type=2 2 2 2 2 2 2 2 2 2 2 2 2 8 8 2 2 2 2 2 10 2 2 2 2 2 2 2 2 2
left_child=2 12 9 4 13 -5 21 11 10 -1 -9 19 23 14 15 17 18 -3 -17 20 -8 22 -7 26 25 -21 -2 -23 -15 -30
right_child=1 3 -4 5 -6 6 7 8 -10 -11 -12 -13 -14 28 -16 16 -18 -19 -20 24 -22 27 -24 -25 -26 -27 -28 -29 29 -31
leaf_value=0.0071778200235102655 -0.033420789726026974 -0.024990092111665738 -0.055299886308112035 -0.0029879639513832276 0.0034954311512015073 -0.049509282612886729 -0.054234497554650318 0.0057249704569863414 -0.049090480255125336 -0.026190594163334479 -0.031439231939424758 -0.019425847238721313 -0.024910899999321487 -0.052399218963621923 -0.0047656794695271412 -0.010085874607496062 0.0011156326884461684 -0.05251913880072439 -0.042880382359615991 -0.053711425486723786 -0.012030172240684834 -0.03445992895366936 -0.0085186378437604113 -0.031592207369098166 -0.059331674480020892 -0.019201539874309753 -0.052555496138563584 -0.050739226817479402 -0.020672649977237664 -0.050509092828144794
leaf_weight=0.0099222963224309124 0.0010873414171151943 0.0016495294946863338 0.001513420135410338 0.0013541242093656472 0.003037115303715864 0.002104096492895001 0.001007072715167868 0.0031120533947921478 0.0013654664582471998 0.001470700991484942 0.0012820179452649461 0.0019081629292616576 0.0014555495834481782 0.00134588904821209 0.0025536976861477703 0.001077881252484203 0.0015754314144353907 0.0020702449633831495 0.0014982721074253691 0.0053391576754203713 0.0012215408064396582 0.0014094577074866823 0.0010625722479443711 0.0012083510290927793 0.0028177864019227599 0.0017780534308753373 0.04282172628912928 0.01978371084030273 0.0012019174439673588 0.0010047639218715432
leaf_count=7478438 201722 526215 92530 817657 2110428 173173 119965 1954707 69225 470983 440370 661362 380971 74321 1210729 452337 946705 46971 344963 122649 472752 312605 365084 200740 149344 613527 988162 835189 354717 79227
internal_value=0 -4.20214 -0.395075 -3.556 -2.18037 -4.06991 -4.18546 -3.4491 -1.5543 0.287035 -0.511809 -4.22463 -5.07009 -2.73008 -2.25879 -2.83699 -1.76704 -4.03114 -2.91589 -4.58262 -3.11016 -4.78494 -3.57549 -5.15329 -4.91293 -4.509 -5.20817 -4.96566 -4.11308 -3.4258
internal_weight=0 0.109133 0.0129064 0.06256 0.0170147 0.0455453 0.0441911 0.0198313 0.00575954 0.011393 0.00439407 0.0140718 0.046573 0.0139776 0.0104251 0.00787136 0.00415158 0.00371977 0.00257615 0.0121636 0.00222861 0.0243598 0.00316667 0.0451174 0.009935 0.00711721 0.0439091 0.0211932 0.00355257 0.00220668
internal_count=23067768 15025817 8041951 13254222 6146613 7107609 6289952 4603901 2464302 7949421 2395077 2139599 1771595 4036185 3527920 2317191 1744005 573186 797300 1478237 592717 1686051 538257 1390624 885520 736176 1189884 1147794 508265 433944
shrinkage=0.01


Tree=16
num_leaves=31
num_cat=0
split_feature=0 5 4 4 0 30 30 11 4 0 13 17 11 1 30 1 5 13 21 0 5 1 8 11 13 2 1 30 10 13
split_gain=0.155082 0.0559814 0.045404 0.0425854 0.0424344 0.0207013 0.0238404 0.0267887 0.0143153 0.0253004 0.0167261 0.0137953 0.0103427 0.0151414 0.0103206 0.0109169 0.00905634 0.00904088 0.00834695 0.00674691 0.00614198 0.00589463 0.011055 0.0040346 0.00400802 0.00323236 0.00322967 0.00309094 0.00784069 0.00260763
threshold=-128.21883499999998 0.26146986806050004 0.0037969500000000003 0.040011100000000008 -3.1582749999999997 1991.5000000000002 1997.5000000000002 37.233733116050004 0.047499650000000004 7.2141550000000008 0.90123276865500013 116535.26246650002 331.30034869500008 26.362400000000004 2002.5000000000002 11.672740000000003 0.81974273704600009 0.8388436296920001 55.745342294050005 -112.08681499999999 0.9160739144800002 -15.017779999999998 52.623602862100007 508.4942377270001 0.62636476773900018 -585.49999999999989 -25.304229999999997 1997.5000000000002 2195.3221172400004 0.71319646141000015
decision_type=2 2 2 2 2 2 2 10 2 2 8 2 8 2 2 2 2 8 2 2 2 2 2 10 10 2 2 2 10 10
left_child=3 25 4 11 5 -3 17 19 9 10 20 -1 26 14 15 -14 -12 -7 -6 -8 27 -22 -23 -11 -15 -2 -9 -4 -29 -30
right_child=1 2 8 -5 18 6 7 12 -10 23 16 -13 13 24 -16 -17 -18 -19 -20 -21 21 22 -24 -25 -26 -27 -28 28 29 -31
leaf_value=0.0071523450865714575 -0.050095917806506948 0.010623382979368948 -0.049574390970680872 -0.05266977273400187 -0.024326813987807405 -0.048952723062576857 -0.051999821412980152 -0.015315151054867287 -0.055997284563279369 0.0027875330452621352 -0.03514073778813584 -0.025374502584211953 0.0025732123309999276 0.0083506494314288509 -0.051551910203793634 -0.0426729905466324 -0.0021017568303604763 -0.023365963887955733 0.0080106062521673634 -0.023967379100554364 -0.047740578687902845 -0.0026885709118708813 -0.041477172328898207 -0.022831564238885601 -0.015656467359689546 -0.03202101365549806 0.0063448886258687699 -0.02440313479567819 -0.054769975814160689 -0.041924983487220714
leaf_weight=0.0098583815157604615 0.040672512039791719 0.0011428943337714597 0.014208698496658068 0.0015727934625948687 0.0010079827137853259 0.0084081452210004216 0.0033865688557375151 0.0010146444442546976 0.0062267104232508474 0.0013628054252989843 0.0019324838837436731 0.0015026570719560714 0.0010856742419709231 0.0012900048724199251 0.001932719568944252 0.0010480162992863027 0.0014538138202958573 0.0016523385032835003 0.0038354901751106447 0.0011501872198942395 0.0020354682019277925 0.0012350519992784239 0.0018139057881906284 0.0011198272528974984 0.0015087936119823064 0.0010140568995951052 0.0021409639132744527 0.0019592764031407528 0.0026868182376990069 0.003838087633538767
leaf_count=7478438 801122 699422 456938 92530 434964 513177 88780 398022 188726 867660 351281 470983 464235 739046 229381 235632 686523 358172 2681273 290442 117954 552717 222888 419087 672577 140232 1263088 583494 166125 402859
internal_value=0 -4.04703 -3.5037 -0.390119 -2.58754 -3.09812 -3.29127 -2.47319 -4.20689 -3.94913 -4.19388 0.285021 -1.56044 -2.24922 -3.48129 -1.96506 -2.09564 -4.47503 0.128082 -4.48929 -4.44967 -3.45625 -2.57649 -0.876833 -0.459126 -4.96562 -0.0619613 -4.67225 -4.19464 -4.72143
internal_weight=0 0.112164 0.0704774 0.0129338 0.0306044 0.025761 0.0246181 0.0145576 0.0398729 0.0336462 0.0311636 0.011361 0.0100208 0.00686521 0.00406641 0.00213369 0.0033863 0.0100605 0.00484347 0.00453676 0.0277773 0.00508443 0.00304896 0.00248263 0.0027988 0.0416866 0.00315561 0.0226929 0.00848418 0.00652491
internal_count=23067768 15025817 14084463 8041951 9068211 5951974 5252552 4381203 5016252 4827526 3540779 7949421 4001981 2340871 929248 699867 1037804 871349 3116237 379222 2502975 893559 775605 1286747 1411623 941354 1661110 1609416 1152478 568984
shrinkage=0.01


Tree=17
num_leaves=31
num_cat=0
split_feature=0 5 4 4 0 30 30 0 4 7 1 1 0 10 30 30 10 8 0 0 17 1 0 4 1 1 1 11 1 11
split_gain=0.144223 0.0515011 0.0402228 0.0375465 0.0184515 0.0182207 0.0175393 0.0271462 0.0180639 0.0140344 0.0120776 0.0105867 0.00965637 0.00774879 0.00843141 0.0126109 0.00788826 0.00763552 0.00713963 0.00564416 0.00556208 0.00490844 0.00881385 0.0220401 0.00451237 0.00383227 0.00375774 0.00317345 0.00694826 0.00242502
threshold=-128.21883499999998 0.37083864327150007 0.040011100000000008 0.0015508950000000003 -3.1582749999999997 1991.5000000000002 1998.5000000000002 -51.837189999999993 0.035288900000000005 0.99568544023150007 46.05525500000001 26.362400000000004 67.433550000000011 7186.8154255550007 1997.5000000000002 1996.5000000000002 2215.7260030450002 17.505113608750005 -49.289544999999997 -63.14961499999999 26642.551405100003 20.576815000000003 -48.784129999999998 0.040011100000000008 65.805450000000022 -56.511029999999991 -57.744819999999997 964.23862569650009 3.5830450000000007 402.92325245100005
decision_type=2 2 2 2 2 2 2 2 2 2 2 2 2 8 2 2 10 2 2 2 2 2 2 2 2 2 2 10 2 8
left_child=2 12 9 4 13 -5 21 11 10 -1 -9 20 24 14 15 18 -16 -13 -3 -18 25 22 27 -24 26 -8 -2 28 -7 -27
right_child=1 3 -4 5 -6 6 7 8 -10 -11 -12 17 -14 -15 16 -17 19 -19 -20 -21 -22 -23 23 -25 -26 29 -28 -29 -30 -31
leaf_value=0.0063207769398714031 -0.030333682594876947 -0.030316622223398888 -0.050294519291013577 -0.0022392784171025156 0.0036445156356455944 -0.046558838813678602 -0.028966934192888854 0.0042639981735276208 -0.045122123040772497 -0.032659219220796482 -0.034632537088483822 -0.037160653623397495 -0.022494621413463523 -0.03792034265525189 0.0027481759766029797 -0.046662622378008597 -0.0080253494303687573 0.001561358921444023 0.0059376862356054659 -0.035191554191041009 -0.019792448000468327 -0.047651885744392088 0.0038669449262235373 -0.051702387745752178 -0.029088089308924064 -0.043030819120347841 -0.048387597367341516 -0.051009966934317572 -0.018679302718098551 -0.053417515835744223
leaf_weight=0.010314666111512882 0.0011823952972939136 0.0011430718533671502 0.0016303005484219488 0.0014245197668587553 0.0027758444876068147 0.0030574488827865838 0.001477889481560247 0.0036126630904077537 0.0014174554244332782 0.0010145035600122041 0.0010247177008783082 0.001012680416993538 0.0016040216750340388 0.0033269102777124795 0.0022058265063016336 0.0023001851827344488 0.0014809109967217626 0.0010243470759313531 0.0010350669277330322 0.001581552568355904 0.0010236588050991375 0.015346353904200138 0.0014345305728888933 0.0014205237280819905 0.0013050854951558435 0.0074961215922799678 0.046185257665203087 0.003717006462345962 0.0012632930709761681 0.0032105338819712363
leaf_count=7642540 212573 251853 92530 848432 1940190 179193 321425 2224094 68016 306881 305443 219101 420544 456810 1336052 76434 648321 478196 583843 363819 323720 545843 653560 34433 215451 725924 1058856 74558 273726 185407
internal_value=0 -3.90408 -0.385289 -3.31491 -1.97713 -3.74794 -3.85354 -3.17937 -1.38803 0.28302 -0.433093 -3.89083 -4.66359 -2.4743 -2.02451 -3.0333 -1.16698 -1.76888 -1.30883 -2.20548 -4.21809 -4.4008 -3.88743 -2.37814 -4.74315 -4.40618 -4.79369 -4.42354 -3.84075 -4.61454
internal_weight=0 0.11509 0.0129595 0.0648131 0.0158494 0.0489637 0.0475392 0.0213001 0.00605484 0.0113292 0.00463738 0.0152452 0.0502768 0.0130735 0.00974661 0.00447832 0.00526829 0.00203703 0.00217814 0.00306246 0.0132082 0.0262392 0.0108928 0.00285505 0.0486727 0.0121845 0.0473677 0.00803775 0.00432074 0.0107067
internal_count=23067768 15025817 8041951 13118393 5657322 7461071 6612639 4851326 2597553 7949421 2529537 2253773 1907424 3717132 3260322 912130 2348192 697297 835696 1012140 1556476 1761313 1215470 687993 1486880 1232756 1271429 527477 452919 911331
shrinkage=0.01


Tree=18
num_leaves=31
num_cat=0
split_feature=0 5 4 4 0 30 30 11 7 4 0 13 11 1 30 1 21 5 13 0 5 1 8 1 13 1 2 10 30 10
split_gain=0.1345 0.0475504 0.0390909 0.0380816 0.0379332 0.0187872 0.0206914 0.02384 0.0134932 0.0122701 0.0218206 0.0143883 0.00957067 0.013455 0.00900128 0.0098749 0.00820067 0.00818684 0.00786179 0.00590786 0.00524146 0.004594 0.011536 0.00385824 0.00382014 0.00335247 0.00282776 0.00270034 0.0024484 0.0064748
threshold=-128.21883499999998 0.26146986806050004 0.0037969500000000003 0.040011100000000008 -3.1582749999999997 1991.5000000000002 1997.5000000000002 37.233733116050004 0.99568544023150007 0.047499650000000004 7.2141550000000008 0.90123276865500013 331.30034869500008 26.362400000000004 2002.5000000000002 11.672740000000003 54.678454351650011 0.82395136558800008 0.8388436296920001 -112.08681499999999 0.89843545247500012 -15.017779999999998 51.55553129745001 9.6520500000000009 0.62636476773900018 -26.700564999999994 -585.49999999999989 3781.7191205250006 1997.5000000000002 2195.3221172400004
decision_type=2 2 2 2 2 2 2 10 2 2 2 8 8 2 2 2 2 2 8 2 2 2 2 2 10 2 2 8 2 10
left_child=3 26 4 8 5 -3 18 19 -1 10 11 20 25 14 15 -14 -6 27 -7 -8 28 -22 -23 -12 -15 -9 -2 -13 -4 -30
right_child=1 2 9 -5 16 6 7 12 -10 -11 23 17 13 24 -16 -17 -18 -19 -20 -21 21 22 -24 -25 -26 -27 -28 -29 29 -31
leaf_value=0.0062933150281402565 -0.046318690933301133 0.010627707577800025 -0.045868628129375484 -0.048138394472613089 -0.024044030742049735 -0.045294183656661158 -0.048178855403017452 -0.015572310552466937 -0.031476263419298919 -0.051609970784458573 0.0018900653834908196 -0.021011329275502436 0.0027446046407267112 0.0083580480204087388 -0.047467408908269643 -0.039469891875581593 0.0079736513981525405 -0.0017137542783761499 -0.021930269785248764 -0.022520197380150164 -0.044107721136960487 -0.0027939639757234751 -0.039377082621974008 -0.02325553074740733 -0.014934966762955675 0.0064812433614615961 -0.029818836054584758 -0.044015163225878631 -0.023248896962841256 -0.04387518423508012
leaf_weight=0.010256371761414028 0.043108074423833909 0.0011415429288248449 0.014729213966770738 0.0016859983451646974 0.0010102963447869975 0.0089130869294984406 0.0035879784139738469 0.001002946740371824 0.0010419628307366544 0.0066330554134931274 0.0014857303545422465 0.0010017560169051081 0.001104416356760173 0.0012908807422992163 0.0020610800819708119 0.001112118635314463 0.0038424566636637847 0.0014592607165773153 0.0017177949076002666 0.0011966260214058009 0.0022753218611956121 0.0013545736843174607 0.0023702828910823204 0.0010354491155426526 0.0015489290160187741 0.0022041625885046443 0.0010643244691770353 0.0010401313989432115 0.0019727209324813533 0.0066594529033393579
leaf_count=7642540 801122 699422 441909 92530 419843 513177 88780 371726 306881 188726 853393 295094 464235 739046 229381 235632 2696394 680646 358172 290442 126386 587597 255089 433354 672577 1289384 140232 62064 559005 532989
internal_value=0 -3.7716 -3.28016 -0.380549 -2.44244 -2.90697 -3.08302 -2.33096 0.28101 -3.91287 -3.6789 -3.89641 -1.47585 -2.12215 -3.24242 -1.8436 0.130788 -1.98022 -4.15189 -4.17616 -4.1249 -3.29121 -2.60733 -0.843724 -0.434676 -0.0415478 -4.59211 -3.27294 -4.33903 -3.91614
internal_weight=0 0.117924 0.0737513 0.0129843 0.0317343 0.0268816 0.02574 0.0151091 0.0112983 0.0420169 0.0353839 0.0328627 0.0103245 0.00711742 0.00427762 0.00221653 0.00485275 0.00350115 0.0106309 0.0047846 0.0293616 0.00600018 0.00372486 0.00252118 0.00283981 0.00320711 0.0441724 0.00204189 0.0233614 0.00863217
internal_count=23067768 15025817 14084463 8041951 9068211 5951974 5252552 4381203 7949421 5016252 4827526 3540779 4001981 2340871 929248 699867 3116237 1037804 871349 379222 2502975 969072 842686 1286747 1411623 1661110 941354 357158 1533903 1091994
shrinkage=0.01


Tree=19
num_leaves=31
num_cat=0
split_feature=0 5 4 4 30 30 0 4 0 30 1 1 0 8 10 30 30 10 30 13 1 0 4 0 1 0 0 1 1 11
split_gain=0.125777 0.0441621 0.036132 0.0325102 0.0175824 0.0170784 0.0269714 0.0169312 0.0130784 0.0130623 0.0124187 0.0104375 0.00884775 0.00854867 0.00614332 0.00576906 0.0103286 0.00600977 0.00561757 0.0103126 0.00495535 0.00885393 0.0206031 0.00429881 0.0040149 0.00391329 0.0166143 0.00650606 0.00350502 0.00333225
threshold=-128.21883499999998 0.37641658033200004 0.040011100000000008 0.0011991450000000002 1991.5000000000002 1998.5000000000002 -51.837189999999993 0.029489450000000004 -3.1582749999999997 2008.5000000000002 46.563165000000005 26.362400000000004 67.433550000000011 14.801839162700002 7186.8154255550007 1997.5000000000002 1996.5000000000002 2215.7260030450002 2002.5000000000002 0.61387009174800011 20.576815000000003 -48.784129999999998 0.040011100000000008 -63.14961499999999 65.805450000000022 -64.117934999999989 -109.10158499999999 -47.563159999999996 -57.744819999999997 964.23862569650009
decision_type=2 2 2 2 2 2 2 2 2 2 2 2 2 2 8 2 2 10 2 10 2 2 2 2 2 2 2 2 2 10
left_child=2 12 9 8 -5 20 11 10 14 -1 -8 18 24 -13 15 16 -3 -17 19 -7 21 29 -23 -19 28 26 -20 -28 -2 -6
right_child=1 3 -4 4 5 6 7 -9 -10 -11 -12 13 -14 -15 -16 17 -18 23 25 -21 -22 22 -24 -25 -26 -27 27 -29 -30 -31
leaf_value=0.0071717805316404825 -0.027993898857344379 -0.010254964048204245 -0.046172076842292457 -0.0012587999264985791 -0.035230156745123052 -0.049914603407299148 0.0051604504305045231 -0.040743370654127899 0.0039214134778591432 -0.023667497598957695 -0.033229995291071172 -0.036879861715893546 -0.020854692012494517 0.0025080740112952407 -0.034662007258170785 0.0033763291505477066 -0.043269706013535032 -0.0063769877663829863 -0.046517942277088976 -0.010336945977721999 -0.04424098468657095 0.0041490478566448006 -0.047622558227993425 -0.031855805278860443 -0.02720267803577649 -0.050895054119759461 -0.032169291525018739 0.0025936091954042806 -0.044898142687425056 -0.047592994978634569
leaf_weight=0.0096666728699346116 0.0012580277862856972 0.0019057132365206677 0.0017399407725513525 0.0015369643242427724 0.0047406371783899059 0.001094447839560476 0.0039300728002041865 0.001566550483867224 0.0023976483203504992 0.0016008965630868186 0.0010725771427330113 0.0010254161314026114 0.0017039691920733835 0.0011910679909390431 0.0027930345699587202 0.0019395232142200849 0.0018847938219956892 0.001258996377761501 0.006272794883615985 0.0016523104582636394 0.016823936449210763 0.0015699145662646527 0.0015061594901009112 0.0013969732319919492 0.001382633893085349 0.0034786676151939986 0.0010493293714667349 0.0011056488016603066 0.049080160825979331 0.0040367068621527391
leaf_count=7048857 217641 733802 92530 907915 486525 100828 2453184 101557 1683406 900564 313862 203880 438533 559477 378955 1174664 60180 549511 129919 586382 588533 726767 34326 316001 222684 171337 222627 490375 1095029 77917
internal_value=0 -3.64885 -0.375926 -3.10953 -3.45934 -3.55765 -2.92445 -1.20543 -1.72715 0.279014 -0.307053 -3.59385 -4.32753 -1.5714 -2.18169 -1.75387 -2.66712 -1.00059 -3.89978 -2.61067 -4.07518 -3.57995 -2.12002 -1.97782 -4.40139 -4.19717 -3.82884 -1.43336 -4.44757 -4.09158
internal_weight=0 0.120655 0.0130075 0.0672299 0.0536532 0.0521162 0.0234389 0.0065692 0.0135767 0.0112676 0.00500265 0.0168697 0.0534248 0.00221648 0.011179 0.008386 0.00379051 0.00459549 0.0146532 0.00274676 0.0286774 0.0118534 0.00307607 0.00265597 0.0517208 0.0119064 0.00842777 0.00215498 0.0503382 0.00877734
internal_count=23067768 15025817 8041951 13051930 8155411 7247496 5333428 2868603 4896519 7949421 2767046 2464825 1973887 763357 3213113 2834158 793982 2040176 1701468 687210 1914068 1325535 761093 865512 1535354 1014258 842921 713002 1312670 564442
shrinkage=0.01


Tree=20
num_leaves=31
num_cat=0
split_feature=0 5 4 4 0 30 30 11 7 30 13 30 30 4 13 11 10 3 8 13 29 5 1 13 10 1 30 10 1 1
split_gain=0.117934 0.0412999 0.0360514 0.0343711 0.0324588 0.016039 0.0170604 0.020975 0.01277 0.0123032 0.00879109 0.00835204 0.0144655 0.00878702 0.0110877 0.00765086 0.0106779 0.0113165 0.00666555 0.0063446 0.00578382 0.00496111 0.00379182 0.0128326 0.00405879 0.0030435 0.00713103 0.00260162 0.00245552 0.00226176
threshold=-128.21883499999998 0.22022499133400003 0.0032319150000000006 0.047499650000000004 -3.1582749999999997 1991.5000000000002 1997.5000000000002 37.233733116050004 0.99568544023150007 1990.0000000000002 0.39714200304350006 1998.5000000000002 2002.5000000000002 0.025536600000000003 0.61813549889500008 331.30034869500008 2215.7260030450002 -4605.4999999999991 89.73614257345001 0.84024169879700017 -0.59671499999999988 0.79030942233550017 -20.103429999999996 0.77977282330100006 3414.5032316700003 -20.103429999999996 1995.5000000000002 3696.8569790150004 -25.304229999999997 40.845305000000003
decision_type=2 2 2 2 2 2 2 10 2 2 10 2 2 2 8 8 10 2 2 8 10 2 2 8 8 2 2 8 2 2
left_child=3 -2 4 8 5 -3 19 21 -1 -4 -6 25 13 14 -13 28 20 -18 22 29 -17 -8 27 24 -24 26 -11 -14 -9 -7
right_child=1 2 9 -5 10 6 7 15 -10 11 -12 12 18 -15 -16 16 17 -19 -20 -21 -22 -23 23 -25 -26 -27 -28 -29 -30 -31
leaf_value=0.0060303157976157873 -0.043261979587538246 0.010653988563101494 -0.0047396455743741973 -0.045567528928456787 -0.025339888962871138 -0.037549868926092876 -0.046780454326470065 -0.013272825779857925 -0.030168059130498533 -0.041243618438828782 0.0079061712193850171 -0.036203032868614003 -0.027744183481845909 -0.040063500016147675 0.00098493830853473973 -0.027488330061679368 -0.046137629215649387 -0.0088420675092024566 -0.012374190848192688 -0.020464163725372467 0.00028980837395737653 -0.024729842404212516 -0.04951770776531049 -0.011502874346202022 -0.026992960612145716 -0.042206430617044648 -0.0097735590486928876 -0.044647537438252297 0.0056567867291550302 -0.047916270026144632
leaf_weight=0.010249232672952855 0.042951556607083281 0.001080130300518233 0.0011966525754948381 0.0017053203775052603 0.0010014956359092322 0.0047574522860835983 0.0031070346554464843 0.0010306876218904026 0.0010769777858363758 0.0025165256512497121 0.0038641500256898498 0.0011464010718547071 0.0010228652474546501 0.0013280191045276224 0.0026667517081050418 0.0010501344386888425 0.0021664179616710522 0.001302837799694867 0.0010160157819241167 0.0016049864790614867 0.00261882860917384 0.0015192237238068618 0.0027607653152894626 0.0019403451866558676 0.0011263549987979848 0.023396498348681849 0.0010086377334549423 0.0082913586149043761 0.0020447423051290774 0.0037745793799965894
leaf_count=7658726 731643 655894 666230 75671 288201 434524 99893 377675 307554 153379 2719834 171951 258229 125817 1257732 318537 196022 467870 363663 327390 1297050 237310 154827 714453 258345 928521 292791 299685 1171250 57101
internal_value=0 -3.53464 -3.11145 -0.371341 -2.26462 -2.70735 -2.8705 -2.18743 0.258831 -3.64135 0.106314 -3.71996 -3.25206 -1.79106 -1.01954 -1.3873 -1.9554 -3.21317 -3.71692 -3.87047 -0.766088 -3.95392 -3.8833 -3.25064 -4.29908 -4.09013 -3.22392 -4.27913 -0.068721 -4.2136
internal_weight=0 0.123291 0.0803399 0.0130315 0.0309227 0.0260571 0.0249769 0.0148399 0.0113262 0.0494172 0.00486565 0.0482205 0.0212989 0.00514117 0.00381315 0.0102136 0.00713822 0.00346926 0.0161577 0.010137 0.00366896 0.00462626 0.0151417 0.00582747 0.00388712 0.0269217 0.00352516 0.00931422 0.00307543 0.00853203
internal_count=23067768 15025817 14294174 8041951 8648551 5640516 4984622 4165607 7966280 5645623 3008035 4979393 3604702 1555500 1429683 3828404 2279479 663892 2049202 819015 1615587 337203 1685539 1127625 413172 1374691 446170 557914 1548925 491625
shrinkage=0.01


Tree=21
num_leaves=31
num_cat=0
split_feature=0 5 4 4 30 30 30 8 0 30 4 13 11 30 30 0 0 0 1 30 11 1 4 10 10 8 0 7 1 10
split_gain=0.110796 0.0385623 0.0343685 0.0328087 0.0190164 0.0158974 0.0221487 0.0169839 0.0152335 0.0125889 0.0105701 0.0128566 0.00605031 0.0102534 0.0104572 0.00681136 0.00566056 0.00787038 0.00553769 0.011596 0.00461747 0.0200561 0.00669598 0.00393033 0.00363987 0.00362658 0.00316411 0.010947 0.00298213 0.00286815
threshold=-128.21883499999998 0.20312434762400003 0.0011789900000000002 0.035288900000000005 1991.5000000000002 1998.5000000000002 2002.5000000000002 95.638964573150005 -3.1582749999999997 2008.5000000000002 0.025536600000000003 0.61387009174800011 49.343717336750011 1997.5000000000002 1996.5000000000002 -49.289544999999997 32.292520000000003 169.786055 -20.103429999999996 1995.5000000000002 499.87782285600002 -20.103429999999996 0.012838100000000002 3735.3367037650005 1812.1250183900004 69.866160197800014 -95.055629999999994 0.98554300699450004 -28.005539999999996 2215.7260030450002
decision_type=2 2 2 2 2 2 2 2 2 2 2 8 8 2 2 2 2 2 2 2 8 2 2 10 10 2 2 2 2 8
left_child=3 -2 8 9 -4 18 10 16 12 -1 11 -7 28 14 15 -14 20 -18 19 -6 21 23 -23 -8 -22 -13 27 -20 -3 -15
right_child=1 2 4 -5 5 6 7 -9 -10 -11 -12 25 13 29 -16 -17 17 -19 26 -21 24 22 -24 -25 -26 -27 -28 -29 -30 -31
leaf_value=0.0072435939676004672 -0.042005314035872099 -0.047304139776999814 -0.00035001773542032804 -0.042226825923338838 -0.039539254296107142 -0.030422987949998564 -0.022577246420198996 -0.00051076239014733751 0.003066956825485401 -0.022815701651508393 -0.038867192225639585 0.0063415965485779605 -0.029087534281897427 -0.0013615450713259801 -0.043266198421613986 0.0049410535896257128 -0.0029403165643933971 -0.041162537550804013 -0.0034622866645083422 -0.0050640579687731462 -0.033296743971287762 0.00052631238284626014 -0.031610874826581717 -0.043416342451180187 -0.050205428602185624 -0.015348014698712963 -0.041469477876853816 -0.04267927072122548 -0.024153995314304646 -0.01558377716278885
leaf_weight=0.0095323994633819114 0.04268363876829806 0.001227657416284722 0.0016901863690916832 0.0018876660193070116 0.0030283360618862374 0.001845509187999749 0.001008454312780291 0.0014232639912779002 0.0030130419928103827 0.0016317450993719182 0.00139809005736935 0.0032413575490243263 0.0013508360890108762 0.002374429608545392 0.0025898906140222606 0.0010419512123146513 0.0011468316104570322 0.001015969526777627 0.0010018226715021721 0.0014393770881725445 0.001816268063756561 0.0018052537948222223 0.0010116557564585626 0.0088262950758030145 0.0042571844681468241 0.0010114449401747994 0.027599568913706959 0.0024585164599222327 0.0010177355416617359 0.003520132493197714
leaf_count=7033880 663498 18504 970808 109276 216501 354482 243915 704759 1913315 898795 127344 1642865 239324 1275578 62832 538041 594663 183266 260862 477995 275171 834335 196151 231815 162255 382035 1060816 87183 186188 1121316
internal_value=0 -3.42786 -3.03128 -0.366928 -3.3467 -3.43237 -2.89385 -3.39351 -1.72105 0.285014 -1.40673 -0.83817 -2.18664 -1.87813 -2.93414 -1.42696 -3.62125 -2.08951 -3.8842 -2.84323 -3.79817 -3.45411 -1.10153 -4.12795 -4.51489 0.118315 -4.03393 -3.13253 -3.68112 -0.985482
internal_weight=0 0.125845 0.0831611 0.0130518 0.0670254 0.0653352 0.0298076 0.0223112 0.0161357 0.0111641 0.0074964 0.00609831 0.0131226 0.0108772 0.00498268 0.00239279 0.0208879 0.0021628 0.0355276 0.00446771 0.0187251 0.0126517 0.00281691 0.00983475 0.00607345 0.0042528 0.0310599 0.00346034 0.00224539 0.00589456
internal_count=23067768 15025817 14362319 8041951 9007221 8036413 5933056 3426330 5355098 7932675 2506726 2379382 3441783 3237091 840197 777365 2721571 777929 2103357 694496 1943642 1506216 1030486 475730 437426 2024900 1408861 348045 204692 2396894
shrinkage=0.01


Tree=22
num_leaves=31
num_cat=0
split_feature=0 5 4 4 30 30 0 4 17 0 1 1 0 8 10 13 30 1 17 30 1 0 4 1 1 1 1 11 1 5
split_gain=0.104337 0.0363064 0.0313023 0.0267656 0.0143883 0.0137301 0.0225601 0.0149461 0.0124239 0.0112591 0.0110569 0.0088553 0.00778178 0.00744955 0.00518711 0.005011 0.00475272 0.00524799 0.00472385 0.00467404 0.00412099 0.00751984 0.018421 0.00380774 0.00343646 0.00337579 0.00319062 0.00285358 0.0064831 0.00206756
threshold=-128.21883499999998 0.38239151086650008 0.035288900000000005 0.0011991450000000002 1991.5000000000002 1998.5000000000002 -51.837189999999993 0.035288900000000005 116535.26246650002 -3.1582749999999997 46.563165000000005 26.362400000000004 67.433550000000011 14.801839162700002 7186.8154255550007 0.83298497786550019 1997.5000000000002 19.588645000000003 27876.234899600004 1996.5000000000002 20.576815000000003 -48.784129999999998 0.040011100000000008 10.989505000000001 65.805450000000022 -56.511029999999991 -57.744819999999997 964.23862569650009 3.5830450000000007 0.78061417137100009
decision_type=2 2 2 2 2 2 2 2 2 2 2 2 2 2 8 8 2 2 2 2 2 2 2 2 2 2 2 10 2 2
left_child=2 12 8 9 -5 20 11 10 -1 14 -8 18 24 -13 15 16 19 23 25 -3 21 27 -23 -18 26 -7 -2 28 -6 -27
right_child=1 3 -4 4 5 6 7 -9 -10 -11 -12 13 -14 -15 -16 -17 17 -19 -20 -21 -22 22 -24 -25 -26 29 -28 -29 -30 -31
leaf_value=0.0071464616806781846 -0.025130131675602203 -0.016016950223450194 -0.040719956689878156 -0.0012921562517126293 -0.039187862411490824 -0.024017778296986061 0.00492040527641875 -0.038369805040670592 -0.023015193420966064 0.0038433073752050513 -0.03029608780029033 -0.033186275704912331 -0.018908416446017616 0.002748881871670863 -0.031565295297829463 -0.0023360000943887177 -0.0097633957458274166 0.0035163136542686419 -0.014564541835889452 -0.040550975161622108 -0.039920311897437846 0.0045385611595937566 -0.043240620939110221 -0.035910401088097323 -0.024824616010109476 -0.041693658091981639 -0.040633964570681573 -0.042967811550525814 -0.01426291837156456 -0.033325748631647431
leaf_weight=0.0095415729527135174 0.0013615010708385436 0.0014272331559527238 0.001937686041791232 0.0015308117349048791 0.0035633987739078776 0.0018000010216738813 0.0039941846939367523 0.0015494862403637732 0.0015937868291031618 0.0023568714071574575 0.0011477198589660007 0.0011039602965141606 0.0018353492381147907 0.0012082981107175428 0.0029562948627315242 0.0019985442977047399 0.001217641369088085 0.0013016460961364773 0.0010188847559549083 0.0017031876758726303 0.017976596580000503 0.0016174690141858026 0.0016102618681383962 0.0010264792817877844 0.0014845740718040226 0.0081099034507724488 0.052972616884972006 0.0043155975231807808 0.0014757227655489702 0.0046433306547861717
leaf_count=7464008 223089 440128 109276 902238 189681 356818 2471120 66899 468667 1669697 312875 203774 457608 557047 376920 917633 447266 781861 311885 31845 585849 722099 34222 199969 230280 442062 1135249 77264 295749 584690
internal_value=0 -3.32805 -0.362542 -2.84752 -3.15333 -3.23729 -2.68082 -1.11445 0.282947 -1.60871 -0.294024 -3.26688 -3.91691 -1.44079 -2.01258 -1.62273 -2.03857 -1.24578 -3.53803 -2.93653 -3.6848 -3.24587 -1.92977 -2.17233 -3.98353 -3.68376 -4.02455 -3.69997 -3.18885 -3.8647
internal_weight=0 0.128308 0.013073 0.0706535 0.0566656 0.0551348 0.0245758 0.00669139 0.0111354 0.0139879 0.0051419 0.0178844 0.057654 0.00231226 0.011631 0.00867473 0.00667619 0.00354577 0.0155721 0.00313042 0.030559 0.0125824 0.00322773 0.00224412 0.0558187 0.0145532 0.0543341 0.00935472 0.00503912 0.0127532
internal_count=23067768 15025817 8041951 12979591 8114272 7212034 5307170 2850894 7932675 4865319 2783995 2456276 2046226 760821 3195622 2818702 1901069 1429096 1695455 471973 1904864 1319015 756321 647235 1588618 1383570 1358338 562694 485430 1026752
shrinkage=0.01


Tree=23
num_leaves=31
num_cat=0
split_feature=0 5 4 0 4 30 30 11 13 30 4 0 13 11 10 3 13 5 29 1 11 5 13 1 1 0 1 0 3 5
split_gain=0.0984079 0.0341939 0.0308752 0.0330491 0.0299093 0.017032 0.0162412 0.0197945 0.0149911 0.0121622 0.0097922 0.0146457 0.0098732 0.00906073 0.0115559 0.0105684 0.00611222 0.00609898 0.00559914 0.00541095 0.00442584 0.00391708 0.00375885 0.00353651 0.00246605 0.00911302 0.00179616 0.00341048 0.00176974 0.00174017
threshold=-128.21883499999998 0.20312434762400003 0.0044029800000000008 -3.1582749999999997 0.035288900000000005 1991.5000000000002 1997.5000000000002 37.233733116050004 0.30705324440850007 2008.5000000000002 0.047499650000000004 7.2141550000000008 0.93773564649450014 331.30034869500008 2215.7260030450002 -4605.4999999999991 0.84024169879700017 0.8816577424405001 -0.73911649999999984 -17.018314999999998 854.62295161700013 0.64082934102100009 0.88262911362400021 -51.709234999999993 -15.017779999999998 -66.69677999999999 40.845305000000003 -50.592974999999988 -889.49999999999989 0.46652573944800008
decision_type=2 2 2 2 2 2 2 10 8 2 2 2 8 8 10 2 8 2 10 2 10 2 10 2 2 2 2 2 2 2
left_child=4 -2 3 5 9 -3 16 19 -5 -1 11 12 17 23 18 -16 26 28 -15 -8 -13 -18 24 -9 -19 -26 27 -7 -4 -20
right_child=1 2 10 8 -6 6 7 13 -10 -11 -12 20 -14 14 15 -17 21 22 29 -21 -22 -23 -24 -25 25 -27 -28 -29 -30 -31
leaf_value=0.0072071850418577148 -0.03945711116562528 0.01064346307520991 -0.037399253733257976 -0.03458564405337658 -0.039324190846919994 -0.038293189629770817 -0.03994207948013169 -0.015945871321833748 0.0076868698304536544 -0.022098471323002845 -0.044223288918896431 0.0014453096195118614 -0.0040171382319678798 -0.02840706315602548 -0.042138484637393434 -0.0099588629599279676 -0.033734315212422643 -0.037492083030393648 -0.012388713642253748 -0.015144957024045154 -0.0243420172071151 -0.006798951097822639 -0.0088072978698722337 0.0053487732809415168 -0.0037253440581663604 -0.035623336523423518 -0.042618791297592218 -0.019784570783287023 -0.023971621626406359 0.0033945792500369716
leaf_weight=0.0094374428680797928 0.04453485967800197 0.0012278341569539322 0.02629002125560009 0.0010222798712087302 0.0019861465389603441 0.0052278450190832446 0.0051961989070801184 0.0011068184731490849 0.0046770770225589287 0.0016661644091668934 0.0080431295128522429 0.0015413845680489749 0.001080232353619869 0.001008126272405983 0.0028905985492454489 0.0015775797424419924 0.0010598216460593326 0.002408125319155463 0.0010088920424458081 0.001059382934820329 0.0011713167567450888 0.0011005622186086583 0.0010170423474575865 0.0026403395189655869 0.0013642642183150366 0.0026074351259371955 0.0053122002721306405 0.0012297438292493421 0.0010196109324802664 0.0022708964311199957
leaf_count=7033880 663498 743338 1488598 205062 109276 236120 155693 351089 3142994 898795 200644 887475 411983 264164 209821 516151 104981 114262 313781 274266 292857 278488 369558 1438070 506274 213017 72694 246981 145272 1178686
internal_value=0 -3.23426 -2.86651 -2.21766 -0.358341 -2.59207 -2.72941 -2.122 0.0104551 0.280969 -3.4188 -3.20915 -3.37896 -1.39541 -1.95229 -3.07768 -3.54737 -3.47163 -0.779587 -3.57427 -0.96894 -2.00127 -2.66614 -0.0941142 -2.95076 -2.46665 -3.83117 -3.47685 -3.68979 -0.14605
internal_weight=0 0.130694 0.0861588 0.0396162 0.0130898 0.0339168 0.032689 0.0187588 0.00569936 0.0111036 0.0465426 0.0384994 0.0357867 0.0125033 0.00875609 0.00446818 0.0139302 0.0347065 0.00428791 0.00625558 0.0027127 0.00216038 0.00739687 0.00374716 0.00637982 0.0039717 0.0117698 0.00645759 0.0273096 0.00327979
internal_count=23067768 15025817 14362319 9732379 8041951 6384323 5640985 4701721 3348056 7932675 4629940 4429296 3248964 4271762 2482603 725972 939264 2836981 1756631 429959 1180332 383469 1203111 1789159 833553 719291 555795 483101 1633870 1492467
shrinkage=0.01


Tree=24
num_leaves=31
num_cat=0
split_feature=0 5 4 4 30 30 0 4 7 1 0 1 12 17 0 10 30 30 10 1 4 0 0 0 0 11 1 1 1 1
split_gain=0.0930285 0.0322439 0.0286332 0.024805 0.0140007 0.0127768 0.0222745 0.0148622 0.0118307 0.0116073 0.0111112 0.00974491 0.00777679 0.00589341 0.00502897 0.00484937 0.00448468 0.0079293 0.00455868 0.00403604 0.00539067 0.0137262 0.00385163 0.00342363 0.00335323 0.0114729 0.00726931 0.00702219 0.00249954 0.00219831
threshold=-128.21883499999998 0.34657800750450002 0.047499650000000004 0.0011789900000000002 1991.5000000000002 1997.5000000000002 -51.837189999999993 0.021476850000000002 0.99568544023150007 46.563165000000005 -3.1582749999999997 26.362400000000004 39.691692026600002 40209.076916250007 67.433550000000011 7186.8154255550007 1997.5000000000002 1996.5000000000002 2215.7260030450002 -11.13735 0.040011100000000008 -47.538974999999994 -49.86818499999999 -63.14961499999999 -110.96026499999998 408.42946423200004 13.745570000000003 -17.018314999999998 65.805450000000022 -57.744819999999997
decision_type=2 2 2 2 2 2 2 2 2 2 2 2 10 2 2 8 2 2 10 2 2 2 2 2 2 8 2 2 2 2
left_child=2 14 8 10 -5 13 11 9 -1 -8 15 24 -13 19 28 16 17 22 -18 20 21 -6 -3 -20 -7 26 27 -26 29 -2
right_child=1 3 -4 4 5 6 7 -9 -10 -11 -12 12 -14 -15 -16 -17 18 -19 23 -21 -22 -23 -24 -25 25 -27 -28 -29 -30 -31
leaf_value=0.0059551436717955207 -0.025104525374318988 -0.02299690209320529 -0.039581960548934925 -0.00083780389192157189 -0.040644962369322427 -0.037502999845096446 0.0057041880294748026 -0.033808762687767037 -0.028167547528535179 -0.026682612938437766 0.0039089159936107135 0.0015880518060456782 -0.034251856428684647 -0.012034722002986982 -0.019739712091250094 -0.03011056822180937 0.002360283353559583 -0.036981902185656515 -0.0056556421868911256 -0.037914818423691016 -0.040109010499714548 0.010380163673088949 0.004297308604030976 -0.027543011844931672 -0.024297565086761327 -0.038758596476852925 -0.039904065436011979 0.0055134547301778228 -0.024461915835829604 -0.038286236595155711
